%YAML:1.0
---
opencv_ml_svm:
   format: 3
   svmType: C_SVC
   kernel:
      type: RBF
      gamma: 5.383
   C: 2.6699999999999999
   term_criteria: { epsilon:1.1920928955078125e-07, iterations:1000 }
   var_count: 64
   class_count: 10
   class_labels: !!opencv-matrix
      rows: 10
      cols: 1
      dt: i
      data: [ 0, 1, 2, 3, 4, 5, 6, 7, 8, 9 ]
   sv_total: 1934
   support_vectors:
      - [ 0.102413706, 0.163913727, 0.0909211412, 0.140197814,
          0.0511615463, 0.196519539, 0.233648583, 0., 0., 0., 0., 0., 0.,
          0., 0.234998345, 0.14357461, 0.221253693, 0., 0., 0.0639433563,
          0., 0., 0., 0., 0., 0., 0., 0., 0., 0.152089611, 0.317235678,
          0.213780954, 0.184145659, 0.22770603, 0.152758703, 0.125665247,
          0.126526788, 0.143685311, 0.060601145, 0.129036725,
          0.275957346, 0.17065689, 0., 0., 0., 0., 0., 0., 0.0471376814,
          0., 0.0572709814, 0., 0., 0., 0., 0., 0.432915151, 0.151271179,
          0.100399196, 0., 0.139002398, 0.0482275151, 0.0506615378,
          0.0574941412 ]
      - [ 0.0605075434, 0.118521057, 0.169988811, 0.143686265,
          0.240276113, 0.0929277614, 0.042694997, 0., 0.0126464898,
          0.00434147054, 0.0728098378, 0.166917905, 0.170488819,
          0.0715347528, 0.0461210012, 0.0745505765, 0.0275645051,
          0.0957174301, 0.10014116, 0.0678333044, 0.204186678,
          0.215584725, 0.0114864511, 0.0500349887, 0., 0., 0.,
          0.154992387, 0.243188739, 0.255842626, 0.129298314,
          0.124103203, 0.14484638, 0.145271495, 0.0407476239,
          0.0570055731, 0.145741448, 0.18166922, 0.144914761,
          0.143758669, 0.157272488, 0.106454127, 0., 0., 0.0879165754,
          0.149371296, 0.111741781, 0.0575684682, 0.0732906535,
          0.0905479714, 0.138780236, 0.153941423, 0., 0.0479539149,
          0.195140839, 0.10213384, 0.128573254, 0.211655855, 0.150929451,
          0.162244335, 0.101524323, 0.165585861, 0.0694337338,
          0.090120472 ]
      - [ 0.0729219243, 0.102827355, 0.0985633433, 0.148819119,
          0.266170174, 0.138687521, 0.00961976126, 0., 0., 0., 0., 0.,
          0.296642274, 0.166695893, 0.111474156, 0.146544546,
          0.362788588, 0.13415651, 0., 0., 0., 0., 0., 0., 0.076923795,
          0., 0.0914256796, 0., 0., 0., 0.0999060273, 0.101635344,
          0.0989222005, 0., 0.0540820323, 0.266327739, 0.13357012,
          0.146127656, 0.0864190012, 0.137917325, 0.250041068,
          0.114360429, 0., 0.0520486534, 0.105799153, 0.0586141013,
          0.0911732838, 0.104301035, 0.221328095, 0., 0., 0.0289161205,
          0., 0., 0., 0., 0.384014577, 0.257444441, 0., 0., 0., 0., 0.,
          0.0562777705 ]
      - [ 0.0739658475, 0.160084501, 0.270327151, 0.173054948, 0., 0.,
          0., 0., 0.0375689641, 0.0999243334, 0.101436608, 0.042431049,
          0., 0., 0.116048388, 0.158701181, 0.189366221, 0.0213720202,
          0., 0.0542435944, 0.151907176, 0.107401893, 0.0891857967,
          0.0506556146, 0.130615711, 0.200369313, 0., 0., 0.184904397,
          0.236774698, 0.138465434, 0.18997781, 0., 0.0211188514, 0.,
          0.134735644, 0.170930907, 0.22395815, 0.192289159, 0.133166716,
          0.167233676, 0.100537099, 0., 0., 0.0875978172, 0.114727952,
          0.0729644969, 0.0170490425, 0.141888842, 0.135893658,
          0.08659596, 0.133390516, 0.0408313647, 0., 0.0422054492,
          0.18720606, 0.163883194, 0.21104753, 0.217614189, 0.156616628,
          0.131435081, 0.0981545225, 0.095221296, 0.13330175 ]
      - [ 0.106945992, 0.330163628, 0.0643722862, 0., 0., 0., 0., 0.,
          0.051574938, 0.100509331, 0., 0., 0., 0., 0., 0., 0.126969188,
          0.262051612, 0., 0., 0.0872945637, 0.13752684, 0., 0.,
          0.0918589681, 0.138636485, 0.111305058, 0.237071022,
          0.165284932, 0.119012371, 0.11023733, 0.100184567,
          0.0736913532, 0.178218961, 0.0725363269, 0., 0.147431895,
          0.0884562731, 0.192165837, 0.307471722, 0.0749456435, 0.,
          0.135704562, 0.0621015392, 0.0815169811, 0.0874867365,
          0.0956778675, 0.0746852756, 0.019943824, 0.0916648284,
          0.102084398, 0., 0.130105868, 0.0487434193, 0.234423339,
          0.208775967, 0.162983432, 0.0820365995, 0.0846639276,
          0.210168287, 0.0976652429, 0.150913566, 0.224156857,
          0.163524628 ]
      - [ 0.14026244, 0.14361231, 0.17937544, 0.226056933, 0.107449032,
          0.0982662588, 0.0813922063, 0.0892305449, 0.0518190861,
          0.0761662573, 0.0468635783, 0.0953253359, 0., 0.0833365321,
          0.111161903, 0.0836968496, 0.27114594, 0.0966305956, 0., 0.,
          0., 0., 0., 0., 0., 0.00428812532, 0.166610032, 0.139600649,
          0.142403603, 0.183034539, 0.110975184, 0.0735746846, 0.,
          0.0761098117, 0.274885476, 0.170459941, 0.0822228268,
          0.111751936, 0.111193225, 0.101418994, 0.251456201,
          0.175648987, 0., 0.117921598, 0.0873242915, 0.123838283, 0.,
          0.0951238722, 0.253055662, 0.15146181, 0., 0., 0., 0.,
          0.0396977067, 0.132722884, 0.368389875, 0.206269905, 0.,
          0.0879724398, 0., 0.0521016791, 0., 0.0757451504 ]
      - [ 0.2825149, 0.18442741, 0.21424374, 0.0767814443, 0.187053278,
          0., 0., 0.0754957274, 0., 0.0764594451, 0., 0., 0.0715377256,
          0.0813158303, 0., 0.167375907, 0.299076378, 0.0611418821, 0.,
          0., 0., 0., 0., 0., 0.0245768353, 0.1273036, 0., 0.10294807,
          0., 0.223142803, 0.25921014, 0.217988059, 0.071744062,
          0.111845039, 0., 0., 0., 0.257897973, 0.265842944, 0.094584994,
          0.257588536, 0.0108922394, 0., 0., 0., 0., 0., 0., 0., 0., 0.,
          0., 0., 0., 0., 0., 0.368290722, 0.294118434, 0., 0., 0.,
          0.102960497, 0., 0. ]
      - [ 0.215063155, 0.309759676, 0.111748911, 0.108631581, 0., 0., 0.,
          0., 0., 0.214519009, 0.113863289, 0.0633031726, 0., 0., 0., 0.,
          0.164686665, 0.0990460366, 0., 0., 0.173517287, 0.11559175, 0.,
          0.0914052203, 0.147990167, 0.0363975912, 0., 0., 0.215760916,
          0.195456013, 0.161704764, 0.1808929, 0., 0., 0., 0.,
          0.185136929, 0.257932574, 0.154403284, 0.0932670534, 0.,
          0.0962244719, 0.127753422, 0.17719233, 0.238370895, 0., 0., 0.,
          0.169131964, 0., 0., 0., 0.223393276, 0.121985108, 0.14062123,
          0.123213515, 0.157562733, 0.221620396, 0.150229707,
          0.0780341923, 0.126309961, 0.106846102, 0.0972113162, 0. ]
      - [ 0.152154893, 0.165907979, 0.171685234, 0.224843651, 0.17832908,
          0.110011995, 0., 0.0991926417, 0., 0.0956676081, 0.107970543,
          0.173129469, 0., 0., 0.154171482, 0.124188498, 0.293391585,
          0.199935928, 0., 0., 0., 0., 0., 0.048737295, 0.0884282216, 0.,
          0.102071784, 0.136739045, 0.165119529, 0.183504105,
          0.0961440057, 0.108584128, 0.088079989, 0.133433357,
          0.191248715, 0., 0.207822591, 0.200465158, 0.110406265,
          0.0890321434, 0., 0.238228813, 0.113656268, 0.0465166606,
          0.0665759593, 0., 0., 0., 0.131979719, 0., 0., 0., 0., 0., 0.,
          0., 0.345824271, 0.277308524, 0., 0.061430566, 0., 0.,
          0.0901309401, 0.102611765 ]
      - [ 0.241047278, 0.0825793073, 0.0950197056, 0.0980103239, 0.,
          0.0936086252, 0.143259391, 0.255158514, 0.0923712924, 0., 0.,
          0., 0., 0., 0.00781193003, 0.183890611, 0.220906004,
          0.0263122059, 0., 0., 0.0875764787, 0., 0.138787106, 0., 0.,
          0., 0., 0., 0., 0.235698357, 0.205785185, 0.195746198,
          0.297409505, 0.135965988, 0.109535731, 0.0778878853,
          0.123582184, 0.0583010763, 0.132799491, 0.132766604,
          0.291573495, 0.0225510988, 0., 0., 0., 0., 0.0322372392, 0.,
          0.1334766, 0.106423736, 0.130503625, 0.104900025, 0., 0.,
          0.0156238601, 0.225214899, 0.29234153, 0.258994401, 0.,
          0.145586804, 0., 0., 0.129775271, 0.052697707 ]
      - [ 0.166055843, 0.238104343, 0.243377537, 0.0950971991,
          0.0119376173, 0., 0., 0., 0., 0., 0., 0.0548907556,
          0.0409780331, 0., 0.0188750308, 0.163936034, 0.284819365,
          0.0257908162, 0., 0., 0., 0., 0., 0., 0., 0., 0., 0.187560305,
          0.146892786, 0.179222897, 0.151160583, 0.141529024, 0.,
          0.0127656832, 0.0719338879, 0.234321728, 0.1835033, 0.12468008,
          0.147293657, 0.119426601, 0.323291838, 0.107035235,
          0.0298026353, 0., 0.0542497113, 0., 0., 0.00664751511,
          0.227708623, 0., 0., 0., 0., 0., 0., 0.222329572, 0.362996578,
          0.160932735, 0.173136875, 0., 0.139206812, 0.114091039,
          0.0653448254, 0.104811743 ]
      - [ 0., 0.23737134, 0.271497011, 0.158290669, 0.0174170826, 0., 0.,
          0., 0., 0.0492937081, 0.115658879, 0., 0., 0., 0., 0.,
          0.119041413, 0.143725157, 0.167465314, 0., 0., 0., 0., 0., 0.,
          0.0247779507, 0.343144059, 0.119854465, 0.117936082,
          0.0444443822, 0.147592023, 0.105644435, 0.146611452,
          0.0107291676, 0.122272484, 0.108235985, 0.199989215,
          0.168440938, 0.125192732, 0.201429322, 0.140145004,
          0.205351174, 0.0941817984, 0., 0., 0., 0.117778718,
          0.0947669595, 0.281883448, 0.198056549, 0., 0., 0., 0., 0.,
          0.0906773433, 0.21797277, 0.286956787, 0.149762899,
          0.0830617324, 0.0910459831, 0.0881107599, 0.0922135934,
          0.0853184983 ]
      - [ 0.246044815, 0.29218927, 0.0289474204, 0., 0., 0., 0.,
          0.0927090868, 0.0835426152, 0., 0., 0., 0., 0., 0., 0.,
          0.236894086, 0.075739108, 0., 0., 0., 0.107085317,
          0.0944078341, 0.121156685, 0., 0.130785078, 0.0971992016, 0.,
          0., 0.225997344, 0.199188218, 0.17527166, 0.111283027,
          0.139951304, 0.0681520253, 0.139029846, 0.120190382,
          0.17939207, 0.117932573, 0.0804620013, 0.327990353,
          0.131053641, 0., 0., 0., 0., 0., 0., 0., 0.153429195,
          0.121341631, 0.0710648894, 0.15374434, 0.175810575,
          0.166663662, 0.145343363, 0.148672149, 0.16602999, 0.213641718,
          0.204188287, 0.18936716, 0.114542186, 0., 0.110830128 ]
      - [ 0.241053373, 0.308246702, 0.0936364532, 0., 0., 0., 0., 0., 0.,
          0., 0., 0., 0., 0.207109198, 0.123431087, 0.147765175,
          0.145942077, 0.121671222, 0.193955287, 0.184430435, 0., 0., 0.,
          0., 0., 0., 0., 0., 0.262656242, 0.129113019, 0.0677355081,
          0.223803073, 0.0563796088, 0., 0., 0., 0.152663618,
          0.0755476952, 0.149572581, 0.338943839, 0.248966455, 0.,
          0.0557046048, 0., 0., 0., 0., 0., 0., 0.0919469893,
          0.0869385824, 0., 0., 0.116119049, 0.190497443, 0.265944064,
          0.108685784, 0.121884033, 0.182328388, 0.242973134, 0., 0., 0.,
          0.141705945 ]
      - [ 0.0947012603, 0.0977101848, 0.282298476, 0.143131807,
          0.134322032, 0.0239676852, 0., 0., 0., 0., 0., 0., 0.140968844,
          0.164029047, 0.102411978, 0.142002583, 0.125202358,
          0.128256187, 0.191262305, 0.0874516591, 0.105063505,
          0.0605937578, 0.0303807501, 0.0767310262, 0.0655520335,
          0.0632100478, 0.153715983, 0.181872025, 0.201239407,
          0.144817248, 0.133202344, 0.1542546, 0.0884108692,
          0.0202907976, 0.0699353069, 0.031962581, 0.0314348191,
          0.220298886, 0.189225599, 0.133313343, 0.133825436,
          0.184963807, 0.0998249128, 0., 0., 0.0473865308, 0.0841649994,
          0., 0., 0., 0.140731663, 0.304496348, 0.0709971115,
          0.0806234702, 0.128556103, 0., 0.123095378, 0.0740278289,
          0.277102858, 0.296957791, 0.06730216, 0., 0., 0. ]
      - [ 0.287071824, 0.286728621, 0.132869035, 0., 0., 0.0697753355,
          0., 0.0624946207, 0., 0., 0., 0., 0., 0., 0., 0.0169915743,
          0.275313258, 0.037674088, 0., 0., 0., 0., 0., 0., 0., 0., 0.,
          0., 0.189531162, 0.190097287, 0.186341345, 0.167019352, 0., 0.,
          0.175095931, 0.203291416, 0.158178553, 0.158432379,
          0.162041798, 0.160893753, 0.333538055, 0.0726674348, 0., 0.,
          0., 0., 0., 0., 0.162927955, 0., 0., 0., 0., 0., 0., 0.,
          0.41537717, 0.208948374, 0.0795737654, 0.151864082,
          0.0783911496, 0.103969231, 0.0653708205, 0.112334922 ]
      - [ 0.0875641778, 0.174362659, 0.164649069, 0.135476232,
          0.225433916, 0.157196626, 0.0945603624, 0., 0., 0., 0.,
          0.11287991, 0.229768962, 0.167081445, 0.135221422, 0.101718679,
          0.14075084, 0.144420907, 0.154772431, 0.130455419,
          0.0853797719, 0., 0.0866031423, 0., 0.00782515109, 0.115862951,
          0.0540593192, 0.120406866, 0.130743161, 0.213690087,
          0.154089391, 0.134827808, 0.089191474, 0.105319031, 0.,
          0.0909604803, 0.112903513, 0.262475878, 0.20698823,
          0.183143258, 0.0847187638, 0.113442719, 0., 0., 0.,
          0.142490759, 0.116973907, 0.124635473, 0., 0.117139012,
          0.0836191326, 0., 0.0734508336, 0.020837076, 0.00537266303,
          0.198263794, 0.139318034, 0.216556162, 0.198616967,
          0.158216923, 0.107469633, 0.0424664728, 0.0877818838,
          0.0724814609 ]
      - [ 0.131788373, 0.0257091373, 0.135889098, 0.104024932,
          0.194753915, 0., 0.00985598564, 0., 0., 0., 0.0393312164,
          0.0798787326, 0., 0.0720534623, 0.210459366, 0.183614999, 0.,
          0.0748129189, 0.0375389531, 0.114434324, 0.106663011,
          0.238692775, 0., 0., 0., 0., 0., 0., 0.112534732, 0.280740529,
          0.19446753, 0.111559466, 0., 0.0233235192, 0.243142843,
          0.144438758, 0.119075887, 0.13100566, 0.051537279, 0.116414227,
          0.196651012, 0.186922073, 0.265412748, 0.0412691981, 0., 0.,
          0., 0., 0.116183504, 0., 0.0775100365, 0.0960046053,
          0.126771972, 0.083368212, 0.310389459, 0.150954738,
          0.0630580038, 0.14879328, 0.0918387845, 0.118140683,
          0.234759733, 0.0994678885, 0.181221753, 0.0476838611 ]
      - [ 0., 0.119386695, 0.333143175, 0.0696870387, 0.0923253372, 0.,
          0., 0.0738044456, 0.0833005831, 0., 0.168986619, 0., 0., 0.,
          0., 0., 0.0929171368, 0.169852957, 0., 0.0651325509,
          0.0894027725, 0.0933814421, 0.0726973712, 0., 0., 0.,
          0.176768109, 0.242201045, 0.130142689, 0.139537916,
          0.072911039, 0.127496779, 0.0492965356, 0.0813921243,
          0.232694924, 0.286822528, 0.151776969, 0.0651892871,
          0.13565354, 0.0990199745, 0.0790672675, 0.23075287,
          0.194568142, 0., 0., 0., 0., 0., 0.179855332, 0.189497635,
          0.0508097, 0., 0., 0., 0., 0.141770437, 0.123726651,
          0.298770964, 0.165439084, 0.174614161, 0.0757780597,
          0.148426339, 0.119809806, 0.122530125 ]
      - [ 0.123038188, 0.236197919, 0.268471301, 0., 0., 0., 0.,
          0.0447722673, 0.0938042551, 0.159779385, 0.161109522,
          0.0670218766, 0., 0., 0., 0., 0.0206774306, 0.0144097051,
          0.146051615, 0.137292862, 0.0736666024, 0.0918015838,
          0.0697042868, 0.109350458, 0.0520424955, 0., 0.053827323,
          0.180963367, 0.177237794, 0.166364536, 0.101887144,
          0.217966601, 0., 0., 0.191309005, 0.219619587, 0.253684819,
          0.155743703, 0.109286234, 0.0842370242, 0.0602090135,
          0.139270499, 0.175426409, 0.115323357, 0.118949689, 0.,
          0.05342035, 0., 0., 0.0756242126, 0.089945361, 0.204440847,
          0.112644739, 0.0854962543, 0., 0.0205184668, 0.112754159,
          0.140735671, 0.224660009, 0.264019012, 0.204443797,
          0.0918095633, 0.0886714831, 0. ]
      - [ 0.136158526, 0.205094039, 0.176532298, 0.174079329, 0.,
          0.0879101902, 0.120943241, 0.139663503, 0.0866809115, 0.,
          0.111216202, 0.0875815228, 0., 0.178168625, 0.115002073,
          0.0297122784, 0.206847981, 0.187824905, 0., 0., 0.0517896749,
          0.0727813989, 0.0816268474, 0.0696976408, 0.0509531647,
          0.09567222, 0.0702401847, 0., 0.175505042, 0.174312815,
          0.131333038, 0.164266422, 0.0722968057, 0.114037558,
          0.138997495, 0.0548578389, 0.210139215, 0.265972078,
          0.115821235, 0.129854277, 0.123846009, 0.156289697, 0., 0.,
          0.126358792, 0.13532044, 0.115763493, 0.0670386329, 0.,
          0.110205285, 0.0727431998, 0.106572971, 0.105788343, 0., 0.,
          0.189054579, 0.1643686, 0.23653464, 0.15419434, 0.246156126,
          0.0688601509, 0.0820273906, 0.0824321061, 0.0632019714 ]
      - [ 0., 0.149367675, 0.111407444, 0.126152813, 0.158650964,
          0.0894720554, 0.187352985, 0.117775187, 0.0324253216, 0.,
          0.080801636, 0.0934406221, 0.116824225, 0., 0.160582498,
          0.222903073, 0.195346102, 0.153363585, 0.0625706762,
          0.0781150684, 0.092817463, 0.121387489, 0., 0., 0.0816545337,
          0., 0.0880605802, 0.0900358409, 0.175457358, 0.152782485,
          0.185940444, 0.14047116, 0.0943956077, 0.151664227,
          0.0437830389, 0.193389848, 0.189160526, 0.215518802,
          0.208488852, 0.0523631535, 0., 0.0564227104, 0.0842254683,
          0.139607817, 0.0941571891, 0.0904372185, 0.0658794641,
          0.107194848, 0.0593050309, 0.0888075009, 0.0955161229,
          0.109254077, 0., 0., 0.177124247, 0.0523238443, 0.181528091,
          0.164002851, 0.22883065, 0.279809207, 0.0477060527,
          0.0840153322, 0., 0.0839460269 ]
      - [ 0.0706462115, 0.128896102, 0.281207979, 0.243104234,
          0.0757899731, 0., 0., 0., 0., 0., 0.106237881, 0.161241055,
          0.20754385, 0.0942091048, 0.0936717764, 0.0703165606,
          0.0979416594, 0.113018386, 0.0402988195, 0.123356946,
          0.237091333, 0.0454770252, 0.00383940991, 0., 0., 0.0334712006,
          0.145060524, 0.201261029, 0.220402896, 0.132793307,
          0.133075491, 0.0528126881, 0., 0., 0., 0.0584844947,
          0.203919008, 0.241845399, 0.172948852, 0.114984155,
          0.0415984169, 0.168864653, 0.0455956236, 0.0839324668,
          0.15982908, 0.0769767165, 0.0266002119, 0.0729164407,
          0.103366464, 0.111729406, 0.173688591, 0.118781403, 0., 0.,
          0.126480281, 0.125019699, 0.12280535, 0.1909661, 0.183259085,
          0.18367064, 0.099024497, 0.0948519036, 0.0931341276,
          0.125428349 ]
      - [ 0., 0.0804783851, 0.144909233, 0.230718255, 0.121995971, 0.,
          0., 0., 0., 0.00412988663, 0.00838591345, 0.225573778,
          0.168729335, 0.0570064634, 0.0825033262, 0.0756001174,
          0.0162889082, 0.233145475, 0.239825517, 0., 0.0508288331,
          0.0897382945, 0.0719450116, 0., 0.0863163322, 0.0502994843, 0.,
          0.199060589, 0.182185978, 0.0843225643, 0.103534669,
          0.100654878, 0.173069268, 0.190824151, 0., 0., 0.199900657,
          0.156864479, 0.15629372, 0.118937597, 0.215411797, 0.142196238,
          0., 0., 0.161446795, 0.103831835, 0.0976143479, 0., 0.,
          0.153164923, 0., 0.188951015, 0.1747403, 0.104289114,
          0.0454360321, 0.119647384, 0.00491129048, 0.283106595,
          0.106305242, 0.282059789, 0., 0., 0., 0. ]
      - [ 0.0664461404, 0.168966338, 0.156953126, 0.178829804,
          0.181964666, 0.0417232253, 0., 0., 0., 0., 0., 0., 0.180890337,
          0.206627771, 0.141395822, 0.12284524, 0.0976097956,
          0.0877451524, 0.0829512775, 0.221223056, 0.168927908, 0., 0.,
          0., 0., 0., 0., 0.223209709, 0.149587512, 0.176652998,
          0.100629099, 0., 0.0601410791, 0., 0., 0.0604180321,
          0.248843729, 0.228433311, 0.125701785, 0.103855699,
          0.145862535, 0.0695287436, 0.144752681, 0.166023642, 0.,
          0.0444758646, 0.0464091115, 0., 0., 0.152439833, 0.174173102,
          0.100452319, 0.0791814476, 0.101290092, 0.131560341,
          0.0998271778, 0.188921019, 0.184438556, 0.226615265,
          0.16447553, 0.135513067, 0.160619721, 0.0777270123,
          0.132088795 ]
      - [ 0., 0.360391587, 0.0881485641, 0., 0., 0., 0., 0., 0.,
          0.234287798, 0., 0., 0., 0., 0., 0., 0.143312559, 0.184750825,
          0.128904566, 0.0647760481, 0., 0.0784506425, 0.0399758816,
          0.12041638, 0., 0.105804555, 0., 0.0516772754, 0.168202162,
          0.252549827, 0.16264379, 0.0327517502, 0.0563743263,
          0.141001463, 0.201169461, 0.193267569, 0.125764072,
          0.113737114, 0.182299897, 0.0457239263, 0.107898511,
          0.271833271, 0., 0.0476001315, 0., 0.0730166137, 0.0337986238,
          0., 0.12121997, 0.0745614395, 0., 0.154524654, 0.141105324,
          0.108745731, 0.110543497, 0.119979136, 0.152282253,
          0.239640757, 0.22501573, 0.180338204, 0.14975518, 0.136625782,
          0.0983670503, 0. ]
      - [ 0.106815644, 0.0917928442, 0.264033705, 0.147370756,
          0.0460147224, 0., 0., 0., 0., 0., 0., 0.172128245,
          0.0921934173, 0.0838447884, 0.0862896889, 0.0633985177,
          0.0517489351, 0.0855407938, 0.118889324, 0.087327525,
          0.208090216, 0.10454718, 0.130266711, 0., 0.117125623,
          0.0511845462, 0.0261247233, 0., 0.244298801, 0.200909406,
          0.198646426, 0.107507318, 0., 0.0809574053, 0.193382978,
          0.149139628, 0.0847625732, 0.11975202, 0.170100316,
          0.142574027, 0.242406413, 0., 0., 0.0539550334, 0.109530933,
          0.0794638172, 0.0636695772, 0.083887592, 0.122617498,
          0.0774374306, 0.115418486, 0.198100165, 0., 0.158731803,
          0.177648157, 0.12331266, 0.111940607, 0.152387798, 0.166898891,
          0.180852309, 0.26546225, 0.0708000958, 0.11635647, 0. ]
      - [ 0.161771312, 0.20946373, 0.0954038724, 0.182601288,
          0.215147495, 0., 0., 0., 0.0608728006, 0.131653637,
          0.0676672608, 0.139472991, 0.197107241, 0., 0., 0.0480400845,
          0.169113412, 0.256998509, 0., 0., 0.0514336489, 0., 0., 0., 0.,
          0.235538051, 0.154437795, 0.0898270458, 0.0944314823,
          0.0727157518, 0.0137298778, 0.119257569, 0., 0., 0., 0.,
          0.351540178, 0.107705504, 0.0902482942, 0.114691138,
          0.0976704136, 0.0960356295, 0., 0.159821734, 0.221266925,
          0.0980522484, 0.0892697126, 0., 0.131084681, 0.280931711,
          0.100609027, 0., 0., 0., 0., 0., 0.196721897, 0.320872307,
          0.152332485, 0., 0.0503106229, 0.0271130428, 0., 0. ]
      - [ 0.138645336, 0.249876827, 0.134261027, 0.148984537, 0., 0., 0.,
          0., 0., 0.195289746, 0.0459415913, 0., 0., 0., 0., 0.190098986,
          0.18997024, 0.0346826017, 0., 0., 0.152172372, 0.0951969549,
          0.0814712718, 0.116287157, 0.199227631, 0.091942884, 0.,
          0.0252730455, 0.179844126, 0.166976228, 0.162388444,
          0.211305916, 0.0496734381, 0., 0.0320319608, 0.118176758,
          0.188214809, 0.119859017, 0.136345312, 0.25372836,
          0.0865580961, 0.168368414, 0.10547965, 0.059107203,
          0.0591823235, 0., 0.0699541271, 0.180616871, 0.123196967,
          0.131799415, 0.135745391, 0.149643943, 0., 0., 0., 0.174258485,
          0.188237593, 0.23910512, 0.160231039, 0.130493939, 0.140048385,
          0., 0.0635527596, 0.166249722 ]
      - [ 0.142409921, 0.160825104, 0.227509633, 0.13861981, 0., 0.,
          0.187293649, 0.0543741994, 0.100217186, 0., 0.107985944,
          0.10029579, 0.0443203412, 0., 0.161917314, 0.143508926,
          0.174759075, 0.171370998, 0.128074288, 0., 0., 0.0899097174,
          0.111986205, 0., 0.0911273733, 0.100172848, 0.138027206,
          0.129338548, 0.0853702649, 0.202154949, 0.192507476,
          0.128921822, 0.0946163982, 0., 0.0401915088, 0.1820454,
          0.119325198, 0.107519187, 0.222912431, 0.183677047,
          0.162707105, 0.108149558, 0., 0., 0., 0.132045746, 0.164078861,
          0.0978416353, 0., 0.0944754332, 0.122870155, 0.0544672497,
          0.0972447246, 0., 0.0822768509, 0.246290401, 0.242075995,
          0.122691728, 0.112741314, 0.0848909542, 0.187523216,
          0.0800803602, 0.13328284, 0.0979302824 ]
      - [ 0., 0.372867674, 0.165309891, 0., 0., 0.121739544,
          0.0898385718, 0., 0., 0.101521917, 0., 0.0655532628, 0., 0.,
          0., 0., 0.266549438, 0.0554521829, 0.0446990766, 0., 0., 0.,
          0., 0., 0., 0., 0., 0.193754151, 0.194639355, 0.194457382,
          0.193388596, 0.0696148574, 0., 0.103119664, 0.20806551,
          0.11216104, 0.110675037, 0.0884457827, 0.105811499,
          0.294686228, 0.203378305, 0.0549587794, 0., 0.0931634828, 0.,
          0.11405322, 0., 0.0817407742, 0.193369299, 0., 0.0860332325,
          0., 0., 0., 0.0748271123, 0.100755289, 0.387964249,
          0.167742133, 0.144818321, 0., 0.138751209, 0.104120173, 0.,
          0.130049571 ]
      - [ 0.116634727, 0.154334903, 0.205949381, 0.210504711,
          0.118442401, 0., 0.0820056573, 0., 0., 0., 0.107632011,
          0.0513497889, 0.112305619, 0.0770137459, 0.254901946,
          0.0955813453, 0.174596444, 0.210859448, 0., 0., 0.0879497752,
          0., 0.0797787607, 0.0592921786, 0.104711004, 0.0881953984,
          0.0710273981, 0.139182299, 0.0820602626, 0.169330925,
          0.160277441, 0.227691308, 0.0798648745, 0., 0.0356221907,
          0.118790776, 0.197761044, 0.193096057, 0.145730749,
          0.116119623, 0.230589554, 0.195229277, 0., 0., 0., 0.110123724,
          0.0646529347, 0.0664762706, 0.0986422375, 0.0843853131,
          0.0858913213, 0.0749180913, 0., 0., 0.157339334, 0.198413789,
          0.195802972, 0.163636729, 0.265177459, 0.117036179, 0.,
          0.063079007, 0.0871590972, 0. ]
      - [ 0.110468723, 0.221840709, 0.110443085, 0.120159067,
          0.0811774135, 0.0647354275, 0.131461099, 0.127863243,
          0.108187936, 0.108835645, 0., 0.0860892385, 0.0497175157,
          0.130064622, 0.14193286, 0.130600095, 0.0238938835,
          0.136451751, 0.187947884, 0.205496877, 0., 0., 0., 0.,
          0.0612493828, 0.0981514305, 0.0741197243, 0.141375065,
          0.169278651, 0.189185396, 0.164402112, 0.149617612, 0.15924865,
          0.101636872, 0.226026461, 0.0640685186, 0.11831899,
          0.111314908, 0.0721847564, 0.16259627, 0.224876016,
          0.139556348, 0.107933588, 0.152673647, 0., 0., 0.,
          0.0670846775, 0., 0., 0.132397041, 0.191119447, 0.,
          0.0882898867, 0.162084088, 0.176639348, 0.13598609,
          0.114512652, 0.243211448, 0.135706335, 0.140616283,
          0.135455191, 0.0235877689, 0.0701098293 ]
      - [ 0.305233091, 0.139231533, 0.167657301, 0.117659256,
          0.133178353, 0.120332979, 0.12156076, 0., 0., 0., 0., 0., 0.,
          0., 0., 0.151437208, 0.249723569, 0.0102709951, 0., 0., 0., 0.,
          0., 0., 0., 0., 0., 0., 0.143204585, 0.238607705, 0.213762984,
          0.210831493, 0., 0., 0., 0.236847818, 0.262854487, 0.167923614,
          0.197476238, 0.230369136, 0.120167077, 0., 0., 0., 0., 0., 0.,
          0., 0., 0., 0., 0., 0., 0., 0., 0., 0.325591326, 0.132721201,
          0.228472978, 0.3308101, 0.0189776383, 0., 0., 0. ]
      - [ 0.072889924, 0.234590024, 0.228772029, 0.117597111,
          0.0252460688, 0., 0., 0.0413524993, 0.0356906578, 0.146936893,
          0.181844532, 0., 0., 0., 0., 0., 0.147492856, 0., 0.113509312,
          0., 0.158575028, 0.100653484, 0.104155749, 0.0706026405,
          0.132221758, 0.10391701, 0., 0.102927476, 0.205186039,
          0.170515984, 0.176303625, 0.16152674, 0.0772457495,
          0.0506197624, 0.113659784, 0.21472311, 0.209742695,
          0.119349107, 0.124408759, 0.0821494013, 0.157968938,
          0.109231159, 0.165483162, 0.0651889294, 0.10331329, 0.,
          0.114183441, 0.0789978653, 0., 0.10908068, 0.134515449,
          0.195854902, 0.119637109, 0.122590192, 0.103280388,
          0.104726173, 0.117438659, 0.156328142, 0.205683187,
          0.231230035, 0.206846967, 0.100370526, 0., 0.0977508202 ]
      - [ 0.13523601, 0.291350782, 0.0796165615, 0.122355796,
          0.008041339, 0.0606704913, 0.11233601, 0.0950994119,
          0.10921713, 0.253630549, 0., 0., 0., 0., 0., 0., 0.144720286,
          0.109157264, 0.131772801, 0.139075518, 0.135273576,
          0.109292515, 0.0860900059, 0.136278197, 0., 0., 0., 0.,
          0.312606931, 0.15685308, 0.0962519348, 0.132472143,
          0.0657452121, 0.105146326, 0.2119807, 0.200929031, 0.15868853,
          0.111803733, 0.103050701, 0.158958048, 0., 0.0922748297,
          0.118207619, 0.146798655, 0.0953154787, 0., 0.0789071396, 0.,
          0.0840220377, 0.113034129, 0.0912043825, 0.166244686,
          0.085933201, 0.138821572, 0., 0.086587064, 0.118444964,
          0.185129613, 0.205088869, 0.291295439, 0.0123360362, 0., 0.,
          0. ]
      - [ 0.204103351, 0.12373279, 0.173450008, 0.139137506, 0.,
          0.156206116, 0.17068918, 0.0438412055, 0.196123928, 0., 0., 0.,
          0., 0., 0.0256238468, 0.134887904, 0.117378399, 0.,
          0.0978672951, 0.108047806, 0.104785845, 0.0778422356, 0., 0.,
          0., 0., 0., 0.155643791, 0.235262871, 0.146056071, 0.195673272,
          0.13586989, 0.16938071, 0.249252781, 0.211985737, 0.,
          0.126302913, 0.0962331295, 0.131188825, 0.13046585,
          0.132618874, 0.274249315, 0., 0., 0., 0., 0., 0.0356394313,
          0.160826623, 0., 0.0848794952, 0., 0., 0.0353227518,
          0.0214879941, 0.136956796, 0.345641851, 0.144796863,
          0.0875137225, 0.136614904, 0.0452675708, 0.122211806,
          0.15103443, 0.147413254 ]
      - [ 0.062552616, 0.0965144113, 0.0461266711, 0.158759534,
          0.225335062, 0.208987504, 0.0174041055, 0., 0., 0., 0., 0.,
          0.222854942, 0.148017198, 0.226707608, 0., 0.151630625,
          0.0970170647, 0.205848187, 0.210171044, 0., 0., 0., 0., 0., 0.,
          0., 0., 0.226841345, 0.264785051, 0.0309708323, 0.151429981,
          0., 0.205278903, 0.161198974, 0.19296594, 0.10999275,
          0.201201051, 0.156272516, 0., 0.216963142, 0.0924384668, 0.,
          0., 0., 0., 0., 0., 0.087981537, 0.0841981992, 0., 0., 0.,
          0.0571785569, 0., 0., 0.176392883, 0.361282647, 0.133945912,
          0.201164395, 0., 0., 0., 0.0343537107 ]
      - [ 0.200526938, 0.104404859, 0.236879066, 0.12496563, 0.210248068,
          0.027242396, 0., 0., 0., 0., 0., 0., 0.223111868, 0.154841498,
          0.0695989057, 0.0426753014, 0.104464576, 0.0906329453,
          0.0459135696, 0.152511045, 0.118796982, 0.184859753,
          0.112356573, 0., 0., 0., 0., 0., 0.239279792, 0.230543107,
          0.191668108, 0.107609957, 0.109875411, 0.109637007, 0.,
          0.09093564, 0.116397113, 0.191156462, 0.128925547, 0.205345109,
          0.212617293, 0.125877038, 0., 0., 0.0458514653, 0.,
          0.125923544, 0.0688117146, 0.133027077, 0.147103831,
          0.0742640719, 0., 0., 0., 0.140656501, 0.23875609, 0.148611382,
          0.189588293, 0.150146469, 0.153643712, 0.0901089534, 0.,
          0.11256063, 0.126783937 ]
      - [ 0.317066103, 0.248727039, 0.0571733899, 0., 0., 0.,
          0.0926017016, 0., 0.114000745, 0.111820556, 0.0509480089, 0.,
          0., 0., 0., 0., 0.192038834, 0., 0., 0., 0.0871487483,
          0.106848828, 0.0757431015, 0.133452386, 0.195372537, 0., 0.,
          0., 0.157596186, 0.156606257, 0.169875816, 0.233508319, 0.,
          0.0575903803, 0.107383013, 0.091395691, 0.211287975,
          0.158872589, 0.183380261, 0.167978495, 0.148407355,
          0.224036172, 0., 0.11989136, 0., 0.117216177, 0.0754717886, 0.,
          0.148999646, 0.167884976, 0.143290356, 0.0750346035, 0.,
          0.02507581, 0., 0.147530869, 0.211122766, 0.236731932,
          0.232436553, 0.108407266, 0., 0., 0., 0.144977883 ]
      - [ 0.150291875, 0.268894434, 0.205210418, 0.078886196,
          0.0689457282, 0.0796037316, 0.0630569085, 0.103815705, 0.,
          0.179066181, 0., 0., 0., 0., 0., 0., 0.132132456, 0.0264313426,
          0., 0., 0.0784021094, 0.133749396, 0.0620945208, 0.133200184,
          0.0519292355, 0.107794054, 0.0938938558, 0.116981424,
          0.172923043, 0.199148551, 0.172790661, 0.183989078, 0., 0.,
          0.168030754, 0.2450317, 0.190080613, 0.175685912, 0.106995553,
          0.06891343, 0.0435108356, 0.0874042362, 0.239369124,
          0.130668417, 0., 0., 0., 0., 0.121329583, 0.115440331,
          0.0735412687, 0.120332576, 0.172066897, 0., 0.127920732,
          0.129399583, 0.124646381, 0.201712504, 0.132936627,
          0.238686681, 0.228516266, 0.0910228267, 0.0834100321,
          0.0251371339 ]
      - [ 0.113234244, 0.273322165, 0.245912954, 0., 0., 0., 0., 0., 0.,
          0., 0.166585565, 0.183968097, 0.104222864, 0.119213149,
          0.124686249, 0.0914667174, 0.394078106, 0.0764141083, 0., 0.,
          0., 0., 0., 0., 0., 0., 0.040629454, 0., 0.0452127419,
          0.119949728, 0.151620805, 0.122017063, 0.163510606, 0.,
          0.085051693, 0.16340889, 0.0970146954, 0.14807564, 0.122149989,
          0.219667673, 0.283729732, 0.0982584283, 0., 0., 0.08491835,
          0.0966481864, 0., 0., 0.149303555, 0., 0., 0., 0., 0., 0.,
          0.249807343, 0.36819756, 0.127757832, 0.110814512, 0.116449066,
          0., 0., 0., 0. ]
      - [ 0.216117844, 0.118867598, 0.0624550991, 0., 0.106724583,
          0.0744197592, 0.0976972133, 0.129987031, 0.113947928, 0., 0.,
          0., 0., 0., 0.00729905162, 0.136592746, 0.133545548,
          0.0126423277, 0.10137511, 0.118932948, 0.151936367,
          0.121984214, 0.117186591, 0., 0., 0., 0., 0., 0.267145902,
          0.19131349, 0.146538302, 0.138937235, 0.23058027, 0.0973295867,
          0.121274181, 0.0469798446, 0.126465693, 0.0830947235,
          0.190140933, 0.24533996, 0.200275913, 0.0172575414, 0., 0., 0.,
          0., 0.0399841033, 0.176748991, 0.11415831, 0.144813895,
          0.150526062, 0., 0., 0., 0.190519929, 0.195483938, 0.243303984,
          0.227410153, 0.0961053222, 0.124389544, 0.141214564,
          0.133928865, 0.165142477, 0.115537755 ]
      - [ 0.0191555843, 0.264179021, 0.264804363, 0., 0., 0., 0.,
          0.00767287984, 0., 0.189628273, 0.160714105, 0.0874402523, 0.,
          0., 0., 0.0399908982, 0.136075452, 0.0166608449, 0.0862636045,
          0.141898125, 0.100355186, 0., 0.0966997743, 0.0825357661,
          0.101781949, 0.0410255864, 0.0776793137, 0.190702304,
          0.159254014, 0.120885119, 0.133779481, 0.130590543,
          0.172467768, 0.188088864, 0.0688574016, 0.214034379,
          0.10648644, 0.133454144, 0.0957082063, 0.150075912,
          0.208975837, 0.141182497, 0.209316045, 0., 0., 0., 0.,
          0.0419621915, 0.181342244, 0.112702757, 0.133988991,
          0.0993348584, 0., 0., 0.0121225454, 0.16011937, 0.305800378,
          0.14701128, 0.0860166475, 0.114413396, 0.0878797993,
          0.146317378, 0.146093816, 0.125247836 ]
      - [ 0.27801469, 0.135544389, 0.114267632, 0.0721790791,
          0.0812739879, 0.048560001, 0.116713315, 0.211115614,
          0.19189477, 0., 0., 0., 0.0204264503, 0., 0.00427341694, 0.,
          0.205622107, 0.170886874, 0.0794642419, 0.109982751, 0.,
          0.141488135, 0., 0., 0., 0., 0., 0.190477833, 0.0968782082,
          0.25222227, 0.169116855, 0.138632596, 0.250538677, 0.165698424,
          0.0657166541, 0.0512356274, 0.124300845, 0.167424813,
          0.176688269, 0.127486482, 0.224243566, 0., 0., 0., 0., 0., 0.,
          0.135140523, 0., 0., 0.149877399, 0., 0.0444723926,
          0.109260283, 0.116893776, 0.12930885, 0.177575171, 0.219268113,
          0.224553496, 0.223165229, 0.0720183253, 0.0673636645, 0.,
          0.040512383 ]
      - [ 0.239823326, 0.172485948, 0.211610764, 0.152326882, 0.,
          0.0498575605, 0.0353886001, 0., 0.187096402, 0.215005144,
          0.134026438, 0.0944182053, 0., 0., 0., 0.0534036122, 0., 0.,
          0., 0.112154499, 0.0975972936, 0.156131461, 0.125653967,
          0.130906984, 0.154149339, 0., 0., 0.112370439, 0.118330345,
          0.182122037, 0.231108218, 0.190225169, 0.141494676,
          0.057067655, 0.0848164186, 0.0503779836, 0.103895359,
          0.141931653, 0.144908056, 0.203294054, 0.141170219,
          0.0543828718, 0.0822893456, 0.0954226255, 0., 0., 0.0995138586,
          0.208800584, 0.134553134, 0.191872761, 0.203117535,
          0.0939121544, 0., 0., 0.052930776, 0., 0.16801928, 0.178696454,
          0.248670921, 0.170483902, 0., 0., 0.00927426293, 0. ]
      - [ 0., 0.191663653, 0.352929682, 0.12198472, 0., 0.0896841064,
          0.0813237727, 0., 0., 0.13328211, 0.18138665, 0., 0., 0., 0.,
          0.145159632, 0.285985857, 0.100956887, 0., 0., 0., 0., 0., 0.,
          0., 0.0528391525, 0., 0.171168, 0.196340218, 0.202392489,
          0.172226325, 0.0982919782, 0.103206985, 0.0883894637,
          0.147224575, 0.145760641, 0.141672984, 0.144760668,
          0.240137711, 0., 0.256068259, 0.074846603, 0., 0.,
          0.0934078693, 0., 0.116171211, 0., 0.153628051, 0., 0., 0., 0.,
          0., 0.0394831114, 0.0364211649, 0.38979426, 0.174681276,
          0.0981092006, 0., 0., 0.115049958, 0.0961842909, 0. ]
      - [ 0.0922233611, 0.156633541, 0.140909806, 0.178755909, 0.1381367,
          0., 0., 0., 0., 0., 0.0247294027, 0.213017493, 0.0965831429,
          0.0742483363, 0.0862099305, 0.12350361, 0.0783288106,
          0.0850554854, 0.0774763376, 0.118100658, 0.213063061,
          0.187157422, 0.0202793833, 0., 0., 0., 0., 0., 0.252300769,
          0.18960005, 0.193090677, 0.0523366258, 0.124992833,
          0.0722431988, 0.149318129, 0., 0.169236839, 0.185977653,
          0.132809415, 0.106613427, 0.190754354, 0.196321398,
          0.0151331015, 0., 0.0884472057, 0.0800796747, 0.109307066,
          0.0572730005, 0.0881077796, 0., 0.11927966, 0.14689748,
          0.127710894, 0.145771667, 0.201732799, 0.126011297,
          0.119822279, 0.140831932, 0.144328222, 0.228328153,
          0.134415016, 0.222189873, 0., 0.0805232152 ]
      - [ 0.0978979096, 0.133688912, 0.191521958, 0.121393323,
          0.242538452, 0.154005915, 0., 0., 0., 0., 0., 0., 0.196471095,
          0.180454582, 0.0721308887, 0., 0.206932336, 0.107408062,
          0.0858467892, 0.0525492132, 0.125579238, 0.04308521,
          0.0887019709, 0.095025301, 0.0927018374, 0., 0.170173794,
          0.141767919, 0.119432673, 0.11909394, 0.250008434, 0.153817475,
          0.15813227, 0.0827469528, 0., 0., 0., 0.251296937, 0.224371955,
          0.170379758, 0.158043727, 0., 0., 0., 0., 0.135918394,
          0.143142939, 0.130532742, 0.109468922, 0.0721575841, 0.,
          0.117870919, 0., 0.0868170187, 0.0574599877, 0.178180918,
          0.255929768, 0.127305523, 0.163463324, 0.152177587,
          0.143654749, 0., 0., 0.0984494314 ]
      - [ 0., 0.280277222, 0.308158517, 0., 0., 0., 0., 0., 0., 0.,
          0.20944716, 0.15201956, 0., 0., 0., 0., 0.0957416221,
          0.235161856, 0., 0., 0., 0., 0., 0., 0.028660303, 0.0355985686,
          0.2145098, 0.0997679234, 0.125371844, 0.093912974, 0.147105873,
          0.140194312, 0.110680446, 0., 0., 0.114841044, 0.133610472,
          0.233804196, 0.22655952, 0.132356957, 0.196986943,
          0.0348036624, 0.0429915488, 0.163027063, 0., 0.146443561,
          0.0997814536, 0.11384771, 0.264323115, 0.154581368,
          0.0496667214, 0., 0., 0., 0., 0., 0.273925722, 0.318876207,
          0.114244692, 0., 0., 0., 0., 0.0744517297 ]
      - [ 0.276028097, 0.22118175, 0.131240219, 0.0590189137, 0., 0., 0.,
          0., 0., 0., 0., 0., 0., 0., 0.209806323, 0.190462098,
          0.354347944, 0.114305355, 0., 0., 0., 0., 0., 0., 0., 0., 0.,
          0., 0., 0.168261081, 0.174449012, 0.225219652, 0.0569650009,
          0., 0., 0., 0.141186491, 0.14292869, 0.121362217, 0.311552614,
          0.263005465, 0.0252051335, 0.0844979361, 0., 0., 0., 0.,
          0.0582609586, 0., 0., 0., 0., 0., 0.146375969, 0.206818402,
          0.213505909, 0.322005153, 0.120545633, 0.145437345,
          0.102270491, 0.174447671, 0., 0., 0. ]
      - [ 0.117413826, 0.0742680877, 0.121093765, 0.310385078,
          0.0474460274, 0., 0., 0., 0., 0.0685488135, 0.129071683,
          0.275086105, 0.109601393, 0.0834868997, 0.116180226, 0., 0.,
          0.125635922, 0.147954911, 0.265406847, 0., 0., 0.,
          0.0740928277, 0.0769132227, 0.0404878743, 0.0423415415,
          0.169238403, 0.233683571, 0.0755727813, 0.118963487,
          0.122789964, 0., 0.12536332, 0., 0.0890782103, 0.256191969,
          0.160379872, 0.114253901, 0.100320481, 0.125186324,
          0.0236736387, 0., 0.0376456454, 0.232310981, 0.0842652023, 0.,
          0.0834870338, 0., 0.0574068278, 0.182723522, 0.221409619,
          0.0836215317, 0., 0., 0.109012477, 0.121014096, 0.108248726,
          0.247213706, 0.249419957, 0.095881626, 0.0700009316,
          0.0679218471, 0. ]
      - [ 0.0872008502, 0.185883045, 0.165413469, 0.217157334, 0., 0.,
          0., 0., 0., 0., 0.109261386, 0.21156919, 0.0593267158,
          0.101641402, 0.0774084628, 0.0907742605, 0.226037711,
          0.227814123, 0., 0., 0.0655264109, 0.0684540197, 0.109910659,
          0.0548985004, 0.162209883, 0., 0., 0., 0.149831742,
          0.175393283, 0.166335776, 0.105586022, 0.103655957,
          0.185055703, 0.0400433168, 0.145929158, 0.136642873,
          0.180762827, 0.136778042, 0.139021456, 0.166141659,
          0.227042884, 0., 0.0531690679, 0.133710489, 0.108205892, 0.,
          0.069385469, 0., 0., 0., 0.193648025, 0.205965325, 0.097437948,
          0.0968359709, 0.0614272691, 0.146624982, 0.243886039,
          0.116103366, 0.287158251, 0., 0., 0., 0. ]
      - [ 0.13991639, 0.0711202696, 0.136724204, 0.204365894,
          0.0756574348, 0., 0., 0., 0., 0.0719708651, 0.0757267103,
          0.0464376509, 0., 0., 0.207996339, 0.272658944, 0.0442449003,
          0.13884297, 0.138515532, 0.131624088, 0.139710739, 0.138978958,
          0.0122012496, 0., 0., 0., 0., 0., 0., 0.308725864, 0.15282616,
          0.227856532, 0., 0., 0., 0., 0.230462596, 0.155976921,
          0.2340817, 0.118041083, 0.120222785, 0.164038032, 0.192435771,
          0.157834992, 0., 0., 0., 0., 0.0944564864, 0.0864678547,
          0.063693732, 0., 0., 0., 0.092190586, 0.356285334, 0.142174616,
          0.147627473, 0.084915787, 0.144357547, 0.146105528,
          0.0895392746, 0., 0.07999897 ]
      - [ 0.0326997899, 0.0974051803, 0.120667055, 0.0843428597,
          0.287288696, 0.0827948973, 0., 0., 0., 0., 0., 0., 0.285903603,
          0.137854949, 0.136138275, 0.0924790576, 0.283824056,
          0.234729543, 0., 0., 0., 0., 0., 0., 0.0399395004, 0.,
          0.0874781609, 0.107698627, 0., 0.104321308, 0.133621752,
          0.101322457, 0.194559991, 0., 0., 0.0503436215, 0.274864078,
          0.125672132, 0.145792589, 0.13421461, 0.228662908, 0.160666227,
          0., 0., 0.129165053, 0., 0.108659409, 0.106816776, 0.185093313,
          0.12357346, 0., 0., 0., 0., 0., 0., 0.295977026, 0.346691489,
          0.0933509916, 0., 0., 0., 0., 0. ]
      - [ 0.0076258406, 0.127766669, 0.209638327, 0.24089174,
          0.103040114, 0., 0., 0., 0., 0., 0., 0.234967917, 0.13369979,
          0.140602082, 0.0911897048, 0.0932047591, 0.129580393,
          0.13421987, 0.0201474223, 0.151141062, 0.13523221, 0.156842008,
          0.0923691317, 0., 0., 0., 0., 0., 0.184363753, 0.21598734,
          0.201317579, 0.134385213, 0., 0.161046669, 0.140170097, 0.,
          0.229300067, 0.143890411, 0.171506003, 0.126788154,
          0.132406116, 0.210113868, 0., 0.090630874, 0.120801464,
          0.0987713709, 0., 0.0789437667, 0., 0.0864644274, 0.135494918,
          0., 0., 0.0471394137, 0.173533037, 0.118065186, 0.221157417,
          0.183845103, 0.197689936, 0.133607388, 0., 0.122754663,
          0.0757877231, 0.122749671 ]
      - [ 0.198368698, 0.230325788, 0.112321727, 0.0964173824,
          0.0986401141, 0.0588380843, 0.161635488, 0.0897473916,
          0.17503342, 0.207737222, 0., 0., 0.0239568781, 0.,
          0.0365809426, 0.149635762, 0.216049686, 0.0894904435, 0.,
          0.124512665, 0., 0.111763366, 0., 0., 0., 0., 0., 0., 0.,
          0.240042448, 0.259801894, 0.173405588, 0.190377831,
          0.248868182, 0.0637539327, 0.0957585052, 0., 0.178699374,
          0.139030308, 0.160512716, 0.195514008, 0.0879772678, 0., 0.,
          0., 0., 0.0194134153, 0., 0.0461281613, 0.0613559447,
          0.149274185, 0., 0., 0., 0.0626085401, 0.202112779,
          0.252851188, 0.231194779, 0.246575356, 0.0873103663,
          0.0939044207, 0., 0., 0. ]
      - [ 0.125373483, 0.171996251, 0.300697505, 0.0976242051,
          0.0843075514, 0.0582865365, 0.085526295, 0., 0., 0.,
          0.0922830403, 0.0748694986, 0., 0.0925626159, 0., 0.0645096377,
          0.183788747, 0.114020467, 0., 0., 0., 0.0639126077, 0.,
          0.0706209317, 0.0567118488, 0., 0., 0., 0.261345983,
          0.173214704, 0.18434763, 0.0908082277, 0.11060828, 0.124924973,
          0.0793747455, 0.194736287, 0.214898646, 0.116927817,
          0.148969442, 0.0802385956, 0.241491899, 0.181211114,
          0.153775349, 0., 0.0600762293, 0.093105413, 0.0932093039,
          0.0692972243, 0., 0.125037029, 0., 0.137304246, 0.0469245091,
          0.177812472, 0.202515215, 0.142989397, 0.147406429,
          0.176451638, 0.171566516, 0.188968703, 0.174076885,
          0.105611928, 0.141878709, 0. ]
      - [ 0.193324253, 0.216453418, 0.153889254, 0.0532931127,
          0.133683518, 0., 0., 0., 0.194581702, 0.11821796, 0.0873427391,
          0.0615871288, 0., 0., 0., 0.129195079, 0.140421197,
          0.00361487782, 0.0243947189, 0., 0., 0.0871271938, 0.134577751,
          0.215565965, 0.127631247, 0., 0., 0., 0.127050281, 0.194395214,
          0.106045343, 0.276158392, 0.181946591, 0.00956406817, 0., 0.,
          0.25040707, 0.115246512, 0.178639084, 0.198503569,
          0.0907484889, 0.0343705192, 0., 0.193085536, 0.0919777229,
          0.101810053, 0., 0.0886891782, 0.214499757, 0.132693857,
          0.165114716, 0.129189417, 0., 0.0324154869, 0.0123672681,
          0.126779675, 0.247121975, 0.194007173, 0.15888904, 0.196250558,
          0., 0., 0., 0. ]
      - [ 0.186144486, 0.0500808172, 0.309921056, 0.13678503, 0., 0., 0.,
          0., 0., 0., 0.135674715, 0.147910282, 0.125357687, 0.10352499,
          0.0725669935, 0.0592516139, 0.121421225, 0.0574653037,
          0.147942707, 0.158420324, 0.167947233, 0., 0., 0., 0., 0., 0.,
          0.249861047, 0.16557689, 0.150194511, 0.163141817, 0., 0.,
          0.103648774, 0.0370514095, 0.087380901, 0.183942601,
          0.128990203, 0.232145056, 0.190465927, 0.148713946, 0.12938036,
          0., 0., 0.0798531026, 0.122544654, 0., 0.115090281,
          0.170418933, 0.162141308, 0.105037965, 0., 0., 0., 0.14570421,
          0.1492531, 0.237948105, 0.176430807, 0.232391909, 0.0470941775,
          0.129458085, 0.102997974, 0., 0.158848897 ]
      - [ 0.27817449, 0.207107157, 0.175678298, 0.0786401182, 0., 0., 0.,
          0.099661544, 0.0955496579, 0.137217969, 0., 0.0724026412, 0.,
          0., 0., 0.0646648258, 0.271833003, 0.108847819, 0.102514021,
          0., 0., 0.103760205, 0.0570456237, 0., 0., 0., 0.070519872,
          0.199008361, 0.0989980549, 0.171910942, 0.16096665,
          0.195486903, 0., 0.163964346, 0.155814111, 0., 0.165312767,
          0.140918195, 0.227382123, 0.252776206, 0.138356403, 0., 0.,
          0.17094776, 0., 0., 0., 0.0944865122, 0.180070758, 0., 0.,
          0.0333025455, 0., 0., 0., 0.0192028116, 0.398405313,
          0.164755657, 0.090171814, 0.143814534, 0.0934388265, 0.,
          0.0920710787, 0. ]
      - [ 0.131433398, 0.146260604, 0.186798126, 0.208582938, 0.19408375,
          0.0822967142, 0.0631698668, 0.0778630897, 0., 0.0762865618,
          0.127992406, 0.135577142, 0.133543715, 0., 0.0179607309,
          0.117071413, 0.122571625, 0.167261362, 0.108011469,
          0.0967375636, 0.0875275657, 0.0967074335, 0.0533641316,
          0.0963485688, 0., 0.141821355, 0.193133309, 0.174077824,
          0.1369524, 0.175736949, 0.152724594, 0.0582414418, 0.,
          0.0994987041, 0.101696447, 0.170440763, 0.202391461,
          0.174615771, 0.139052212, 0.141816586, 0.0950859115,
          0.118397981, 0., 0., 0.187985495, 0.0975431725, 0.081004791,
          0.0467110574, 0.104746573, 0.104877435, 0.157044113,
          0.0433562659, 0.0545530356, 0., 0.16416119, 0.122121438,
          0.159251079, 0.146761626, 0.120978884, 0.184983552,
          0.177630603, 0.150007874, 0.136894032, 0. ]
      - [ 0.244474694, 0.18014966, 0.212809399, 0., 0., 0.108558744, 0.,
          0.0498374887, 0.0791755244, 0.0776014999, 0.190334201,
          0.0650929287, 0., 0., 0., 0.102815643, 0.0666384846,
          0.0970550701, 0.0733261928, 0.116957173, 0.20845966,
          0.0995470062, 0.109683424, 0.090009287, 0., 0.109246679,
          0.109919116, 0.140857264, 0.204163402, 0.19791548, 0.136974528,
          0.114043623, 0., 0., 0.146091253, 0.0948119387, 0.177070841,
          0.204220563, 0.188581735, 0.040775042, 0.11700324, 0.053870108,
          0.208453894, 0.128103241, 0.120071858, 0.0948034003, 0.,
          0.0282409098, 0.147002965, 0.13511166, 0.11552076, 0.153107256,
          0.0274983682, 0., 0.15770866, 0.13740553, 0.157946348,
          0.125578791, 0.170031711, 0.241456032, 0., 0.0366759785,
          0.0820830241, 0.153478637 ]
      - [ 0.153286174, 0.201241732, 0.236519575, 0., 0., 0.11939726, 0.,
          0., 0.118220106, 0., 0.124566004, 0.0302976761, 0.,
          0.113205738, 0.137004092, 0.153034598, 0.188322619,
          0.216953874, 0., 0., 0., 0., 0., 0., 0., 0., 0., 0.,
          0.132013872, 0.182223201, 0.154641032, 0.217359886,
          0.0797952265, 0., 0.104405649, 0.237401366, 0.19108896,
          0.191932887, 0.160368338, 0.128213868, 0.148635566, 0.15173246,
          0.19687441, 0., 0., 0., 0., 0., 0.0101931486, 0.170585439, 0.,
          0., 0., 0.115123473, 0.121617183, 0.12613973, 0.172076479,
          0.38722834, 0.127806455, 0.115030766, 0., 0.100725882, 0.,
          0.103083454 ]
      - [ 0.237544641, 0.10147436, 0.088534385, 0.181176022,
          0.00613926537, 0.169516653, 0.169231117, 0.168174133, 0., 0.,
          0., 0., 0., 0., 0.00730085839, 0.158628479, 0.15637514, 0., 0.,
          0.106748812, 0., 0.0769684315, 0., 0., 0., 0., 0., 0.,
          0.193887815, 0.220530674, 0.237072766, 0.225229144,
          0.302619934, 0.146750867, 0.0974334255, 0., 0.105954289,
          0.107432768, 0.150658563, 0.222088382, 0.271965802,
          0.0336398818, 0., 0., 0., 0., 0., 0.0576878525, 0., 0.,
          0.104524612, 0., 0., 0., 0.00918034371, 0.0957783684,
          0.412159353, 0.107496247, 0.0795705467, 0.0719499439,
          0.120501146, 0., 0.109239116, 0.106639251 ]
      - [ 0.126844451, 0.294170618, 0.192952573, 0., 0.0376696177, 0.,
          0., 0., 0.0518514216, 0.276096612, 0., 0., 0., 0., 0., 0.,
          0.185185865, 0.0388008915, 0.192135513, 0.105048947,
          0.133428991, 0.0622654222, 0.1186959, 0.132258371, 0.,
          0.133749202, 0.0769231617, 0.12830466, 0.185667381,
          0.223767012, 0.127540097, 0.130717561, 0.0575198941,
          0.122490503, 0.1437857, 0.212074354, 0.13419573, 0.144604743,
          0.121169142, 0.0183521807, 0.116602525, 0.226615563, 0., 0.,
          0., 0., 0., 0., 0., 0.0804590806, 0.220834404, 0.110341467,
          0.00851174165, 0.0690562576, 0.0815421641, 0.128057286,
          0.113626666, 0.179994866, 0.25288862, 0.264927447,
          0.00851174165, 0., 0.0833740532, 0. ]
      - [ 0.172996446, 0.271432519, 0.17504409, 0., 0., 0., 0., 0., 0.,
          0.075270012, 0.142873093, 0.0665703565, 0.136214718,
          0.0865990594, 0.102448709, 0.0726558492, 0.14188832,
          0.303989857, 0.11073783, 0., 0., 0.0456479825, 0.049013637, 0.,
          0., 0., 0.072671935, 0.211782113, 0.142278358, 0.130626872,
          0.100914396, 0.105521172, 0.107505374, 0.121244423, 0.,
          0.148340881, 0.128677562, 0.135528862, 0.148600951,
          0.192696556, 0.232728973, 0.159513623, 0., 0., 0.0913506597,
          0.0519824885, 0.0729730055, 0., 0., 0., 0., 0.217876539,
          0.201525569, 0.151414335, 0.116091207, 0., 0.150020629,
          0.186651051, 0.0995796472, 0.353183836, 0.022369571, 0., 0.,
          0. ]
      - [ 0.0631939843, 0.271026582, 0.22252214, 0., 0., 0., 0., 0., 0.,
          0.0140798045, 0.223369598, 0.120432429, 0.0917216614,
          0.119490467, 0.105724424, 0.0632470921, 0.149840653,
          0.157849923, 0.198399082, 0.170476705, 0., 0., 0., 0., 0.,
          0.112746805, 0.143971831, 0.144494966, 0.096543774,
          0.130579084, 0.114628017, 0.149687901, 0.163133636, 0.,
          0.118013181, 0.0986654013, 0.102505766, 0.153749362,
          0.179296434, 0.231381521, 0.196897149, 0.0196678061,
          0.0315408595, 0.134617731, 0.066906929, 0.103045233, 0.,
          0.10739097, 0., 0.133362696, 0.136939541, 0.0956725478, 0.,
          0.0458744317, 0.24051027, 0.0759016052, 0.196720794,
          0.186185256, 0.189519525, 0.111907572, 0.120692171,
          0.180985048, 0.0548277348, 0. ]
      - [ 0.163073644, 0.209335923, 0.117615618, 0.164239362,
          0.168790355, 0., 0.0659703463, 0.0879558921, 0.0920312703,
          0.175823182, 0.0670733675, 0.0804584995, 0.165256247, 0.,
          0.0775911659, 0.0740067586, 0.129460633, 0., 0., 0.126876846,
          0.183081374, 0.0851850212, 0.0714637861, 0.0873445943,
          0.14987731, 0.100215264, 0., 0.167218, 0.170309618,
          0.186956376, 0.0814633071, 0.200923771, 0., 0., 0., 0.,
          0.197023109, 0.263034344, 0.15101698, 0.124687262, 0., 0., 0.,
          0., 0.158664703, 0.196229726, 0.179666266, 0., 0.124863401,
          0.0384471714, 0.178376675, 0.232108355, 0.0208234191, 0., 0.,
          0.0885692388, 0.148792669, 0.112706229, 0.23372978,
          0.240769714, 0.0208234191, 0., 0., 0. ]
      - [ 0.0708373412, 0.108234547, 0.299515247, 0.111401245, 0., 0.,
          0., 0.131975532, 0.0342507586, 0.102151416, 0.108511612,
          0.171445087, 0., 0.0823294222, 0.137686238, 0.132209107,
          0.0713709891, 0.100665025, 0.0770174265, 0., 0.119674526,
          0.198985279, 0.105852708, 0., 0., 0., 0.0379458368, 0., 0.,
          0.301353782, 0.211851656, 0., 0., 0.0258921646, 0.19373551,
          0.219343945, 0.138580024, 0.0977505594, 0.0585699901,
          0.138310835, 0.0303268563, 0.0698141903, 0.277683377,
          0.213411286, 0., 0., 0., 0., 0.0728755891, 0.0837612078,
          0.0784155652, 0.0967801213, 0.138339087, 0.228642613,
          0.195000738, 0.0954932794, 0.120511606, 0.112311333,
          0.124100119, 0.170871913, 0.196836114, 0.113051556,
          0.0926259458, 0. ]
      - [ 0.257984549, 0.0384355821, 0.14164114, 0.0934648216, 0.,
          0.0912228897, 0.131343812, 0.224299759, 0.131130055, 0., 0.,
          0., 0., 0., 0., 0.129997537, 0.156516507, 0., 0., 0.149341896,
          0.117962599, 0., 0.103949659, 0., 0., 0., 0.0690853447, 0.,
          0.247462615, 0.175104946, 0.174062684, 0.194121003,
          0.298734605, 0.186453477, 0.0856849179, 0.0499712378,
          0.104429439, 0.123026609, 0.0474979095, 0.110839106,
          0.324982464, 0.0308833253, 0., 0., 0., 0., 0., 0., 0.146473512,
          0., 0.14895995, 0., 0., 0., 0., 0.053358905, 0.387881309,
          0.128520206, 0.114985637, 0.080329977, 0.0754644051,
          0.131907016, 0., 0.140682817 ]
      - [ 0.123067066, 0.154487297, 0.219387367, 0.195879743, 0.,
          0.123500273, 0.0286949221, 0.122242697, 0., 0.0496413186,
          0.157577828, 0., 0., 0., 0.208195746, 0.0503507294,
          0.205920115, 0.0581275634, 0., 0.0562015064, 0., 0., 0.,
          0.151184872, 0., 0.0884666592, 0., 0.091581285, 0.111745968,
          0.133491918, 0.192904964, 0.213293776, 0., 0.136339292,
          0.141134426, 0.163195238, 0.14522846, 0.136834994, 0.139081925,
          0.170297951, 0.117991537, 0.257676512, 0., 0.0964674801, 0.,
          0.0986992046, 0.086316511, 0.0973972753, 0.0822191313,
          0.150824532, 0., 0.108923055, 0., 0.176101267, 0.163902119,
          0.152618274, 0.16861935, 0.221932381, 0.166884378, 0.190122917,
          0., 0.13448517, 0.0909613222, 0.0952951238 ]
      - [ 0., 0.198347867, 0.273407847, 0.151276737, 0., 0., 0., 0., 0.,
          0.139148563, 0.194715202, 0.121574849, 0., 0., 0., 0.,
          0.133545399, 0.0159041863, 0., 0.118594356, 0.158809051,
          0.118696965, 0.101607144, 0.0719473362, 0., 0., 0.0163579937,
          0.19373323, 0.16177386, 0.195967004, 0.125632674, 0.109168775,
          0., 0.0103199994, 0.0223026276, 0.223848969, 0.169117048,
          0.13272883, 0.172209918, 0.134826079, 0.0241649523, 0.12696749,
          0.0760494247, 0.195597187, 0.150333509, 0.175853863,
          0.108016439, 0.0340953097, 0.0915162936, 0., 0., 0.216716975,
          0.121746935, 0.0708059594, 0.09947218, 0.18545267, 0.24053669,
          0.113623783, 0.104208797, 0.12419872, 0.0419806503,
          0.135564625, 0.132744417, 0.218593881 ]
      - [ 0.180516988, 0.211026207, 0.157218173, 0., 0., 0., 0., 0., 0.,
          0., 0., 0., 0., 0.145390764, 0.13660726, 0.220582142,
          0.367585808, 0.0103008077, 0., 0., 0., 0., 0., 0., 0., 0., 0.,
          0., 0., 0.154620543, 0.0863301679, 0.234916553, 0.0565730035,
          0., 0.0997511446, 0.142290041, 0.0561127178, 0.103211619,
          0.255153567, 0.261217356, 0.263715386, 0.0147900106, 0., 0.,
          0., 0., 0.0811541006, 0.141548738, 0.109615937, 0.,
          0.0302628856, 0., 0., 0., 0., 0., 0.467740655, 0.0901747644,
          0.133541495, 0.11234735, 0.157882571, 0., 0., 0.125643313 ]
      - [ 0.101491645, 0.141827062, 0.26924628, 0.24692294, 0.0690347552,
          0., 0., 0., 0., 0., 0., 0.191771299, 0.183411479, 0.0870448127,
          0.0489737429, 0.0730058476, 0.0775878951, 0.153498963,
          0.212998062, 0., 0., 0., 0., 0., 0.0775878951, 0., 0.13076286,
          0.182539076, 0.141461119, 0.140408173, 0.141115606,
          0.095495522, 0., 0., 0.0690561756, 0.148857534, 0.260299027,
          0.156907767, 0.148156866, 0.126116082, 0.135240391,
          0.142839938, 0.170635581, 0., 0.100101426, 0.0890346318,
          0.101611942, 0., 0.178693503, 0.173849598, 0., 0.,
          0.0732455924, 0., 0.150640056, 0.151975065, 0.144626439,
          0.264478922, 0.197144255, 0., 0.138374001, 0.116011925,
          0.121318482, 0.0433498286 ]
      - [ 0.0717742741, 0.111937322, 0.17032893, 0.232089445, 0.13434422,
          0.0575560145, 0., 0.105380081, 0., 0.063463293, 0.0916012824,
          0.108285025, 0., 0., 0.189297438, 0.144701302, 0.205370948,
          0.128715023, 0., 0., 0.127198115, 0.102669366, 0.0796727166,
          0.0761677101, 0.115418516, 0.119208731, 0.0908640325,
          0.0854874924, 0.214287341, 0.12100105, 0.178621486, 0.12987788,
          0., 0.00366233662, 0.0387171917, 0.259410262, 0.210162222,
          0.107658803, 0.0875293463, 0.125254452, 0.0754339099,
          0.110420175, 0.11474558, 0.280590534, 0., 0., 0., 0.,
          0.0138578778, 0.0870210305, 0.0940959528, 0.0755139589,
          0.122194938, 0.131978124, 0.224693328, 0.122707397,
          0.140262917, 0.120475508, 0.151264995, 0.175207078,
          0.126621693, 0.149057925, 0.13458465, 0.118204221 ]
      - [ 0.192855969, 0.0491551161, 0.127278373, 0.226469249,
          0.203775033, 0.0454093553, 0., 0., 0., 0., 0., 0., 0.230849281,
          0.187121943, 0.0994884372, 0.162809029, 0.164234966,
          0.162701309, 0.24247174, 0., 0., 0., 0., 0., 0., 0.152630821,
          0.162734583, 0.0837614983, 0.132290572, 0.0880265608,
          0.142185032, 0.239232019, 0., 0.0309338104, 0.1371537,
          0.178780749, 0.170629516, 0.167412996, 0.169488072, 0.23931174,
          0.156618714, 0.0467192121, 0., 0., 0.0223842338, 0.0465865918,
          0., 0.0436030813, 0., 0.0671993643, 0., 0.124392256,
          0.0611906834, 0.0853751227, 0., 0.0300252028, 0., 0.260613501,
          0.356200039, 0., 0., 0., 0., 0. ]
      - [ 0.0311036129, 0.181044891, 0.284049153, 0.070168592, 0., 0.,
          0., 0., 0., 0., 0.178808942, 0.0669705272, 0.137216628,
          0.0935134217, 0.0712257996, 0.123639733, 0.0837896243,
          0.120178036, 0.118458286, 0.0827545822, 0.149468407,
          0.197645411, 0.0263363905, 0., 0., 0., 0., 0.133279234,
          0.180141538, 0.170538217, 0.190359384, 0.160849452, 0.,
          0.0801267102, 0.217500597, 0., 0.155826539, 0.173582703,
          0.142314076, 0.168086931, 0.177613497, 0.0859042853,
          0.131010562, 0.127141058, 0.0838717222, 0., 0., 0.0363519713,
          0.0847209394, 0.0135009438, 0.0957678258, 0.205807477,
          0.10318163, 0.0511761755, 0.17662397, 0.153488055, 0.116818212,
          0.143208697, 0.211629808, 0.255076081, 0.139160663,
          0.0886936262, 0.093333751, 0.0793287233 ]
      - [ 0.255315065, 0.102312475, 0.0717594698, 0.0483630858,
          0.190991595, 0.178184927, 0.0622506142, 0., 0.100729853, 0.,
          0.0870475024, 0.107699901, 0., 0., 0., 0.106276982,
          0.157866642, 0.0811726227, 0.0744188651, 0.091600053,
          0.219896123, 0.070811443, 0.0078533031, 0., 0., 0.0813572109,
          0.234520838, 0.181611404, 0.170651644, 0.11721582, 0.14281562,
          0.0952451527, 0.0230428502, 0.0136023192, 0.0653989762,
          0.276821256, 0.189905733, 0.112128533, 0.160492271, 0.,
          0.103860058, 0.0355004817, 0.105364203, 0.240928441,
          0.0682524964, 0.0636743456, 0., 0., 0.162780926, 0.0998676419,
          0.0837493688, 0.0800304711, 0.0795204937, 0., 0.0498757102,
          0.232253745, 0.164973825, 0.158145264, 0.115476809,
          0.174427867, 0.139579877, 0.116073474, 0.106324732,
          0.198797524 ]
      - [ 0.170421168, 0.220224977, 0.238315478, 0., 0., 0., 0., 0.,
          0.0472172238, 0.203085035, 0., 0.164684594, 0., 0., 0., 0.,
          0.188043937, 0.120723136, 0.110986307, 0.129805133,
          0.0900210589, 0.110893086, 0.12567997, 0.0770095959,
          0.0952466503, 0.00441172812, 0.0407876484, 0.200342059,
          0.143066496, 0.131177649, 0.18714191, 0.129561946, 0.124614671,
          0.147770718, 0., 0.154600158, 0.141725466, 0.139779255,
          0.176594034, 0.209173173, 0.153688416, 0., 0.053914357, 0.,
          0.114885047, 0.125420302, 0.112626687, 0., 0.207796693,
          0.137405187, 0., 0., 0., 0., 0., 0.0352420099, 0.377358109,
          0.10914588, 0.0930520967, 0.117461286, 0.115509458,
          0.101749234, 0., 0.160404205 ]
      - [ 0.219614252, 0.14690043, 0.141498432, 0.113058217, 0.186243638,
          0.0952253938, 0., 0., 0.101975054, 0.155046925, 0.102401376,
          0.16754514, 0.116838336, 0., 0.0875639543, 0.101992562,
          0.195720851, 0.104196571, 0.141913727, 0.221331671, 0., 0., 0.,
          0., 0., 0.0125438357, 0.0629802048, 0.160497472, 0.17107895,
          0.143868521, 0.163142487, 0.141616911, 0.141786397,
          0.0853631049, 0.108152486, 0.208729446, 0.150449052,
          0.120174587, 0.0172398519, 0.113548681, 0.226613864,
          0.168266043, 0., 0.0939033926, 0.104247339, 0.101044342, 0.,
          0.0608359203, 0., 0.159940779, 0.132435963, 0., 0.,
          0.0444554277, 0.165074766, 0.133082181, 0.255294681,
          0.215911329, 0.188474059, 0.0910900533, 0., 0., 0.0829981491,
          0.0731988698 ]
      - [ 0.0116961291, 0.11858318, 0.171188489, 0.29462114, 0., 0., 0.,
          0.0209866632, 0., 0.0303096138, 0.0359637253, 0.296034068,
          0.0997979417, 0.134205341, 0.0516306013, 0.117558435,
          0.123278588, 0.296446234, 0., 0., 0., 0., 0., 0., 0.108233951,
          0.109528244, 0., 0., 0., 0., 0.0939361304, 0.113422982,
          0.187479377, 0.0667488053, 0., 0.152330145, 0.232309833,
          0.131557778, 0.115655646, 0.200486809, 0.196135417,
          0.0157045107, 0., 0.151757494, 0.174801111, 0., 0.120737344,
          0., 0.235684603, 0.192252368, 0.0579015538, 0., 0., 0., 0., 0.,
          0.271809936, 0.349565059, 0., 0., 0., 0., 0., 0. ]
      - [ 0.0737060905, 0.1093392, 0.173302621, 0.311145604, 0., 0., 0.,
          0., 0., 0., 0., 0.221452281, 0.136015654, 0.101091877,
          0.113171667, 0.12377084, 0.142699838, 0.0951965228,
          0.160506174, 0.195204318, 0., 0., 0., 0., 0., 0., 0.034313865,
          0.245141655, 0.123089917, 0.174467847, 0.135111019,
          0.0749968216, 0.118542649, 0.058475323, 0.138716772,
          0.0617847368, 0.19175604, 0.123963527, 0.201769844,
          0.173519522, 0.181191504, 0.0805452615, 0., 0.104838207,
          0.169566095, 0.0879320279, 0., 0.0301104188, 0.11958278,
          0.0523116626, 0.152088031, 0.181129292, 0., 0., 0.0315775089,
          0.16226621, 0.123819359, 0.271748334, 0.190169364, 0.170060545,
          0.0820555761, 0., 0.0943880081, 0.0666884109 ]
      - [ 0.122332901, 0.225413427, 0.110954382, 0.13809453, 0.205093965,
          0.0683497936, 0.0229140241, 0., 0.0511979163, 0.190296263, 0.,
          0.12097057, 0.182893381, 0., 0., 0.077765502, 0.125620231,
          0.238410652, 0.106664136, 0.144526213, 0., 0., 0.,
          0.0575286634, 0.0637894869, 0.111263663, 0.148411304,
          0.0663077533, 0.127230182, 0.166588485, 0.167610422,
          0.125635162, 0.0715703592, 0.103485234, 0., 0.167785957,
          0.241777375, 0.114581808, 0.0893784165, 0.094752036,
          0.0977342054, 0.195219815, 0., 0.166361928, 0.120499358,
          0.0855538696, 0.0973631367, 0.0688858926, 0., 0., 0.147761807,
          0.196153805, 0.0726720318, 0.157838598, 0.113186479,
          0.0867983624, 0.166713089, 0.196539357, 0.211916089,
          0.216321781, 0.0848855451, 0., 0.0601323545, 0. ]
      - [ 0.164220154, 0.124078102, 0.14310883, 0.126435846,
          0.0736181736, 0.110302478, 0.135637477, 0.217008546, 0., 0.,
          0., 0., 0., 0., 0.156187117, 0.170229867, 0.237533763,
          0.00972955581, 0., 0.103694998, 0., 0.0812202096, 0., 0., 0.,
          0., 0., 0., 0.128502041, 0.19852525, 0.250337064, 0.131569833,
          0.206113145, 0.192621514, 0.160334751, 0.107236408,
          0.108950019, 0.0856175795, 0.0820079744, 0.193572894,
          0.308546782, 0.0312413983, 0., 0., 0., 0., 0., 0.138463646,
          0.0793432519, 0.103156477, 0., 0., 0., 0., 0., 0.0613467619,
          0.408191264, 0.144242465, 0.125872046, 0.132311136, 0.,
          0.0762483627, 0.1200139, 0.133112416 ]
      - [ 0.294017166, 0.268302023, 0.0294999126, 0., 0., 0., 0., 0., 0.,
          0., 0., 0., 0., 0.0826240554, 0., 0., 0.20295921, 0.161429197,
          0.0256631095, 0., 0.0850278363, 0., 0.095471777, 0., 0., 0.,
          0.0877485052, 0.0885037333, 0.163547963, 0.17238985,
          0.152493194, 0.186175644, 0.117690153, 0.153551191,
          0.115590915, 0., 0.12989679, 0.149680272, 0.131486624,
          0.117731139, 0.36408785, 0.105205514, 0.106408909, 0., 0., 0.,
          0., 0., 0.133079216, 0., 0.104925372, 0., 0.122993261,
          0.201137796, 0.146737888, 0.218397588, 0.21355322, 0.160577253,
          0.184772953, 0.176517427, 0.0970928371, 0.150536105, 0.,
          0.145681337 ]
      - [ 0.0506534912, 0.0940683708, 0.123780563, 0.214525744,
          0.212559208, 0.017689297, 0., 0., 0., 0.00578787597,
          0.0142747881, 0.243569508, 0.183379486, 0.111693457,
          0.091197066, 0.0495770127, 0.116653211, 0.19391945,
          0.266915023, 0., 0.0549564287, 0.0486072563, 0.0449103303,
          0.0471526086, 0., 0., 0.0725802705, 0.194430709, 0.16653271,
          0.138135254, 0.112907417, 0.151118055, 0.129102632,
          0.103952937, 0.13106665, 0.0500043035, 0.187747166,
          0.207764059, 0.196955189, 0.224843293, 0.0119216768, 0., 0.,
          0., 0.0867913365, 0.0973607451, 0.0931595415, 0.195244253, 0.,
          0., 0.185998037, 0., 0., 0., 0., 0., 0., 0.338861465,
          0.267457485, 0.0284037851, 0., 0., 0.0844233781, 0. ]
      - [ 0., 0.0722099319, 0.104373418, 0.33303377, 0.163628265, 0., 0.,
          0., 0., 0.00579685112, 0.0341059938, 0.307179123, 0.194333434,
          0.118386738, 0.0840235725, 0.074652791, 0.0751259103,
          0.118165113, 0.277495325, 0., 0., 0., 0., 0., 0.0522737391,
          0.0827120394, 0.223754734, 0., 0.0925365984, 0.0800443962,
          0.0901341885, 0.0871852115, 0.142273366, 0.0145783089, 0.,
          0.0741676763, 0.260275573, 0.20519118, 0.132518142,
          0.115456484, 0.142428458, 0., 0., 0., 0.235143185, 0.121311888,
          0.0798859522, 0., 0., 0.209389418, 0.197970718, 0., 0., 0., 0.,
          0., 0., 0.198683873, 0.334016532, 0.0429166816, 0., 0., 0., 0. ]
      - [ 0.121491, 0.138441801, 0.255141079, 0.286706895, 0., 0., 0.,
          0., 0.0835379884, 0., 0., 0., 0.219220966, 0.0986113995,
          0.106793426, 0.0315540433, 0.0930058286, 0.188709751,
          0.21413444, 0., 0., 0., 0., 0., 0.0859452635, 0.0840015486,
          0.136423007, 0.108684406, 0.189314023, 0.230584145,
          0.145497158, 0.0651864633, 0., 0., 0.116343893, 0.,
          0.208214045, 0.147214293, 0.146023721, 0.0567248426,
          0.149109289, 0.232377678, 0.16499953, 0., 0.0836307853, 0.,
          0.0914032385, 0.0743807778, 0., 0.168599918, 0.0435017571, 0.,
          0., 0.158113509, 0.215991274, 0.145762563, 0.151643291,
          0.220395982, 0.192173257, 0., 0., 0.0380946808, 0.113582075,
          0.136730343 ]
      - [ 0.391747504, 0.140467733, 0.0980122834, 0.0385518, 0., 0., 0.,
          0., 0., 0., 0., 0., 0., 0., 0.0102699976, 0.177583992,
          0.362025976, 0.0220745821, 0., 0., 0., 0., 0., 0., 0., 0., 0.,
          0., 0., 0.177615732, 0.183012962, 0.229040518, 0., 0.,
          0.0540037081, 0.113209054, 0.115667999, 0.114757255,
          0.157192662, 0.198907107, 0.375201613, 0.0278480239, 0., 0.,
          0., 0., 0., 0., 0., 0., 0., 0., 0., 0.0605790913, 0.213693574,
          0.305739224, 0.182912424, 0.253830731, 0.106660515,
          0.147596136, 0.114244945, 0., 0., 0. ]
      - [ 0.116361953, 0.144593582, 0.173586622, 0.198957115, 0.,
          0.0418189168, 0., 0., 0., 0., 0.135787472, 0.0942695141,
          0.14651756, 0.157788977, 0.120016895, 0.127585724,
          0.0912603512, 0.0217391104, 0.115797497, 0.136790365,
          0.192027122, 0.0782078356, 0.142886639, 0.0869693682,
          0.120379098, 0.0603364781, 0., 0., 0.202846587, 0.152854472,
          0.194420949, 0.133849651, 0., 0.128266528, 0., 0.0652481616,
          0.159979016, 0.168551996, 0.252321601, 0.127936348,
          0.177837864, 0.0278626159, 0., 0.111549437, 0.163687542,
          0.141777113, 0., 0.106730349, 0.124484263, 0.128374219,
          0.169439003, 0.130674526, 0., 0., 0.0373330489, 0.177376032,
          0.183130115, 0.166922167, 0.19987084, 0.18707788, 0.,
          0.0468115024, 0.13076967, 0.123816013 ]
      - [ 0., 0.304418206, 0.143774897, 0.148671359, 0.073906526,
          0.104830973, 0.0719506294, 0., 0.194979623, 0.17214945, 0., 0.,
          0., 0., 0., 0., 0.217523903, 0.0242758729, 0.0721081197,
          0.1035017, 0.0985744894, 0., 0.106248982, 0., 0., 0.0515633374,
          0.0328751281, 0.263042271, 0.146602973, 0.113107421,
          0.151855424, 0.139067739, 0.0936499014, 0.274704307,
          0.190735519, 0.0680465177, 0.070691824, 0.105077408,
          0.087169826, 0.110624142, 0.298540592, 0.0210721567, 0., 0.,
          0., 0., 0., 0.0259142257, 0.200147152, 0.142723054,
          0.029212663, 0., 0., 0., 0., 0.0441268757, 0.361686736,
          0.126404941, 0.116637968, 0.154412225, 0., 0.13723737,
          0.152207062, 0. ]
      - [ 0.165348142, 0.16524978, 0.22012791, 0.136612445, 0.128825471,
          0.152612537, 0., 0., 0., 0., 0.0217826366, 0., 0., 0.209407777,
          0.169288903, 0.100488357, 0.127193063, 0.128869727,
          0.0455263965, 0.163265243, 0.18312642, 0., 0.0489643812, 0.,
          0., 0., 0., 0.204377845, 0.240213454, 0.144683033, 0.162180454,
          0.201802164, 0., 0.0918311924, 0.0702615008, 0.0440618582, 0.,
          0.192047611, 0.214338243, 0.286977589, 0., 0., 0.,
          0.0531900525, 0., 0.0616565607, 0., 0.0893283561, 0.0722255781,
          0.125132084, 0.166077927, 0., 0., 0., 0.152301297, 0.138819516,
          0.179366335, 0.207303822, 0.205684721, 0.223955393, 0.,
          0.0901765525, 0.0928428769, 0. ]
      - [ 0.162545115, 0.26065582, 0.230333656, 0., 0., 0., 0., 0.,
          0.149825305, 0.117542751, 0.150266618, 0., 0., 0.0492952242,
          0., 0., 0.152294978, 0.0218152571, 0.0362582877, 0.159671232,
          0.0991572216, 0.0774754733, 0.049984403, 0.0868330449,
          0.18294853, 0.111196898, 0.0625972599, 0.0589677207,
          0.16964519, 0.173838541, 0.199332193, 0.162732467, 0.,
          0.0774092749, 0.133307472, 0.142764479, 0.0960650668,
          0.126666993, 0.162898615, 0.218319237, 0.110841215,
          0.118590415, 0.139622808, 0.134886622, 0.095290713,
          0.0694810748, 0.0764747113, 0.146009922, 0.156565085,
          0.131575808, 0.181761399, 0.185157984, 0., 0., 0.081865184,
          0.140108436, 0.13547729, 0.198427081, 0.22154516, 0.213294268,
          0., 0., 0., 0. ]
      - [ 0.397923976, 0.152125731, 0.112631351, 0.0744674355, 0., 0.,
          0., 0., 0., 0., 0., 0., 0., 0., 0., 0.0261798501, 0.239426091,
          0.0380419418, 0., 0., 0.0942801535, 0., 0., 0., 0.16732049,
          0.105916187, 0., 0.0810842514, 0.0806224719, 0.182644099,
          0.204209775, 0.261731386, 0., 0., 0., 0.144717872, 0.117680423,
          0.205357388, 0.200035006, 0.197776675, 0.294723779,
          0.061339274, 0., 0., 0., 0., 0., 0., 0.113136642, 0.104313321,
          0.0760743842, 0.112110309, 0., 0., 0.0725379586, 0.192908645,
          0.220789894, 0.29669252, 0.150586411, 0.15853408, 0.,
          0.0980319083, 0., 0.103242904 ]
      - [ 0.0276616402, 0.162455618, 0.172967821, 0.249673247,
          0.158673719, 0., 0., 0., 0., 0., 0.133644626, 0.128221378,
          0.0908789337, 0.111778989, 0.0934433192, 0.149012133, 0.,
          0.151401997, 0.110493034, 0.184550568, 0.123628765, 0., 0., 0.,
          0., 0., 0.0638228208, 0.181102142, 0.247805968, 0.200076595,
          0.0660472438, 0.0973355025, 0.0874672309, 0.0991158932,
          0.134287745, 0.16858463, 0.179028943, 0.127190426, 0.156696662,
          0.122722536, 0.137638971, 0.226328567, 0.101128437,
          0.0890092403, 0.0892011374, 0.10107924, 0., 0.0863621086, 0.,
          0.0819712654, 0.0983526781, 0.0741434172, 0.105546698,
          0.0309361536, 0.221254379, 0.212543145, 0.0958124176,
          0.0880442634, 0.0651362389, 0.183418632, 0.20586428,
          0.135723829, 0.119689025, 0.0949611738 ]
      - [ 0.185670689, 0.124208599, 0.196785673, 0.133465365,
          0.0945546031, 0.065790765, 0., 0.0712501332, 0., 0.0706907138,
          0.0732478052, 0.0682744682, 0., 0., 0.123899207, 0.192752913,
          0.129167005, 0.211024061, 0.118577488, 0.118592456,
          0.113544196, 0.100286759, 0.0654919967, 0.00875171553,
          0.123551033, 0., 0.149401173, 0.133673668, 0.246351182,
          0.143109277, 0.128222391, 0.111414328, 0.0649951398,
          0.0806555226, 0.071809262, 0., 0.155883521, 0.239312902,
          0.0720135868, 0.12834698, 0.147387281, 0.236290723,
          0.0990846008, 0., 0.0762224346, 0., 0.0737491846, 0.0692825541,
          0.0724327341, 0.0606555156, 0.0980038494, 0.160891026, 0.,
          0.199937597, 0.212587953, 0.131932735, 0.0275724232,
          0.114168353, 0.168237686, 0.187579393, 0.203451365, 0.16419743,
          0., 0.101912312 ]
      - [ 0.139192909, 0.126633301, 0.142501965, 0.257587224, 0., 0., 0.,
          0., 0., 0., 0., 0., 0.167619675, 0.160467178, 0.156587347,
          0.188485861, 0.138210371, 0.106978059, 0.161621824,
          0.136889413, 0.128193796, 0.109895267, 0., 0., 0., 0., 0., 0.,
          0.154254138, 0.23122707, 0.17866993, 0.233088657, 0.0549903922,
          0., 0., 0.152545393, 0.210256308, 0.0889073536, 0.156187221,
          0.217534065, 0.239369079, 0.107254036, 0., 0., 0.,
          0.0263671186, 0.0461318083, 0.0587698519, 0.054443907,
          0.0512201227, 0.0472731739, 0.0631604493, 0., 0.0273626056,
          0.229606971, 0.151047543, 0.15228565, 0.260113209, 0.176770106,
          0.217318431, 0., 0.0287819877, 0.101238459, 0.0539457947 ]
      - [ 0.136219859, 0.0756365061, 0.107227519, 0.072223492,
          0.0359663405, 0.169033095, 0.148845658, 0.113300771, 0., 0.,
          0., 0., 0., 0., 0.0519140586, 0.176718801, 0.209948778,
          0.0901872218, 0.0770628899, 0., 0.0863912776, 0.111044094,
          0.132872701, 0., 0., 0.0259872861, 0., 0.194807857,
          0.214284956, 0.134776741, 0.111669093, 0.067970261,
          0.217497841, 0., 0.0794820413, 0.0945571959, 0.0943215787,
          0.0797624439, 0.135974914, 0.268148243, 0.231999516, 0., 0.,
          0., 0., 0., 0., 0.275515914, 0.139877722, 0.0931529924,
          0.163010299, 0., 0., 0., 0.185042024, 0.20806323, 0.227096885,
          0.237692863, 0.100857802, 0.0333487764, 0.105862029,
          0.178165928, 0.14948912, 0.172863007 ]
      - [ 0.0322642252, 0.281928629, 0.130853742, 0.111673631,
          0.0430799797, 0.113748372, 0., 0., 0.0973495692, 0.100172371,
          0.128092811, 0., 0., 0., 0.0731773302, 0.198686644,
          0.068526186, 0.130968139, 0., 0.111052424, 0.128102243,
          0.0746512637, 0.122824766, 0.0544223711, 0.0514804982,
          0.166953608, 0.0971991569, 0., 0.20341903, 0.185868353,
          0.143225476, 0.184217513, 0., 0.0132727502, 0.0257756598,
          0.221855342, 0.175165817, 0.168544814, 0.208626792, 0.12884365,
          0., 0.100705139, 0.160123199, 0.222165331, 0., 0.0968290716,
          0., 0.0317479558, 0.159655869, 0.117202602, 0.131889403,
          0.133254886, 0., 0., 0.0640216023, 0.210749969, 0.126193821,
          0.204665676, 0.159007117, 0.212725103, 0., 0.0417165756,
          0.133057207, 0.119553983 ]
      - [ 0.282405704, 0.153605387, 0.0465627536, 0.130338386,
          0.0821554661, 0.100053117, 0.0743724704, 0., 0.183910266,
          0.100883372, 0.070416525, 0.128318325, 0., 0., 0., 0.,
          0.259224206, 0.102043495, 0., 0.145747066, 0.0947443917,
          0.0976902395, 0.103226267, 0.0405946299, 0., 0., 0.,
          0.122897692, 0.147082806, 0.198414519, 0.218589082,
          0.105688564, 0.197995991, 0., 0.102045268, 0.185639307,
          0.0365746245, 0.176413894, 0.116603307, 0., 0.292905629,
          0.0415719077, 0., 0., 0., 0.138716221, 0.13912569, 0., 0.,
          0.118491411, 0.129907697, 0., 0.118967459, 0.12533468,
          0.131280169, 0.134940252, 0.237392813, 0.219765231,
          0.188913152, 0.151842549, 0.0713093504, 0., 0.063960202, 0. ]
      - [ 0.0802169815, 0.117993847, 0.127228141, 0.329761177, 0.,
          0.0382001139, 0., 0., 0., 0., 0.0893043876, 0.311915666,
          0.0842865333, 0.0890207961, 0.116228357, 0.0815956146,
          0.234917462, 0.232329667, 0., 0., 0., 0., 0., 0., 0.,
          0.00388328522, 0.0351659507, 0.0476130955, 0., 0.0523196906,
          0.0490089729, 0., 0.13977541, 0., 0., 0.247762352, 0.230179623,
          0.12592335, 0.101410992, 0.0505608581, 0.144940093,
          0.205327392, 0.0502589568, 0.197257161, 0.101702735,
          0.0757423788, 0.0875401497, 0.0873526856, 0.0189660713,
          0.304816544, 0., 0., 0., 0., 0., 0., 0.27791816, 0.35428077,
          0., 0., 0., 0., 0., 0.0190570783 ]
      - [ 0.168334857, 0.118446201, 0.181462303, 0.228682831, 0., 0., 0.,
          0., 0.112534806, 0.153530121, 0.161329731, 0., 0., 0.111553416,
          0.148791701, 0.132489055, 0.381250829, 0.0656045005, 0., 0.,
          0., 0., 0., 0., 0., 0., 0., 0.0893486962, 0.0906648263,
          0.122409329, 0.0657937452, 0.11368081, 0.105991691,
          0.0828039497, 0.0164799504, 0.23494947, 0.109855019,
          0.146817848, 0.11718706, 0.147643328, 0.264935404, 0.113935038,
          0., 0., 0.130931526, 0., 0.130463913, 0.128116861, 0.217279598,
          0.0438226275, 0., 0., 0., 0., 0.009910197, 0.0668492392,
          0.446413815, 0.167446092, 0., 0., 0., 0., 0., 0.0492402762 ]
      - [ 0.153063506, 0.097357884, 0.194739997, 0.228413329,
          0.148684576, 0.032823965, 0., 0., 0., 0., 0., 0., 0.167480126,
          0.169041812, 0.0859528929, 0.150916249, 0.128388032,
          0.10544087, 0.128455848, 0.152244762, 0.120815799,
          0.0912172571, 0.130828962, 0.0658559278, 0., 0., 0., 0.,
          0.201017231, 0.314583451, 0.149638519, 0., 0.107345477,
          0.11815837, 0.0622962341, 0., 0., 0.207588688, 0.196218699,
          0.146440119, 0.185883746, 0.191284597, 0., 0., 0., 0.,
          0.0948752016, 0., 0.136664525, 0.131094918, 0.0852391869, 0.,
          0., 0., 0.186325133, 0.2446872, 0.134272799, 0.156214997,
          0.200506628, 0.191079408, 0., 0., 0.094463475, 0.12358842 ]
      - [ 0.289055765, 0.138451338, 0.025348587, 0.101498798, 0., 0., 0.,
          0., 0., 0., 0., 0., 0., 0., 0., 0.321496665, 0.400587618,
          0.018249996, 0.0309283528, 0., 0.0393234715, 0.0287579559,
          0.0151849147, 0.0374206975, 0., 0.0225604139, 0.0312236194,
          0.018249996, 0.133333609, 0.0966636315, 0.17569083,
          0.189400718, 0.0577115528, 0.0294950008, 0., 0., 0.09960787,
          0.144053504, 0.175417468, 0.418556571, 0., 0., 0., 0., 0., 0.,
          0., 0.0535545275, 0.0477935411, 0., 0., 0., 0., 0.0248931609,
          0., 0.0363676623, 0.452260494, 0.146392256, 0.114084497,
          0.17759344, 0.0478040613, 0., 0., 0.0281231739 ]
      - [ 0.166912064, 0.263830781, 0.201422229, 0., 0., 0., 0., 0.,
          0.139483884, 0.192322433, 0., 0., 0., 0., 0., 0., 0.207475245,
          0.16957134, 0.0556094013, 0.101600833, 0., 0., 0.110321768,
          0.087053448, 0., 0., 0.0675695986, 0.103082821, 0.174985453,
          0.156342268, 0.169364631, 0.17656675, 0., 0.16275306,
          0.160263717, 0.161333904, 0.160034373, 0.179430157,
          0.147621363, 0.154639557, 0.154004365, 0.090000771,
          0.160883754, 0.124271229, 0.113269538, 0., 0., 0.0610563643,
          0.187722921, 0., 0.141904235, 0.111553155, 0., 0., 0., 0.,
          0.287416071, 0.325552315, 0.103312492, 0.111002594,
          0.0211858246, 0.0933535248, 0.0800699145, 0.0635671616 ]
      - [ 0.246359557, 0.155829832, 0.159520015, 0.13441889, 0.101954289,
          0.0936530009, 0.0698350966, 0.0809089094, 0.102002636,
          0.135109469, 0., 0., 0., 0.0515657179, 0.0183442589,
          0.186256543, 0.25506103, 0.0275015254, 0., 0., 0., 0.,
          0.0908500031, 0.0938958898, 0.147168174, 0., 0.113077134, 0.,
          0.062698476, 0.142947212, 0.235423774, 0.166900471,
          0.0412531942, 0., 0., 0.186632007, 0.257968307, 0.183512524,
          0.154815063, 0.147733882, 0.0287570357, 0.126132384,
          0.15833202, 0.246545017, 0.141455397, 0.0597734153, 0., 0.,
          0.0839162469, 0., 0.0977688059, 0.0767162517, 0., 0.,
          0.247591645, 0.157285318, 0.183697075, 0.133895442,
          0.131099105, 0.172286153, 0.0970268026, 0.122792199,
          0.0758936778, 0.0596458912 ]
      - [ 0.26726824, 0.268387586, 0.13473466, 0., 0., 0., 0.0408977792,
          0., 0.148167104, 0.177937701, 0.0579190999, 0., 0., 0., 0., 0.,
          0.184481889, 0.0689198226, 0., 0., 0.142573118, 0.121287912,
          0., 0.128183171, 0.101653986, 0., 0.0977998152, 0.143493772,
          0.142627776, 0.169427305, 0.159576237, 0.20495607, 0.059689749,
          0., 0.160165831, 0.140891626, 0.184743434, 0.123792544,
          0.201441348, 0.0458498597, 0.117663682, 0.236483663,
          0.123682737, 0., 0.107351184, 0., 0.0879648179, 0.,
          0.110353909, 0.125748649, 0.153035372, 0.110535972,
          0.125640392, 0., 0., 0.183403566, 0.123639494, 0.205738604,
          0.225356504, 0.222450569, 0.0134951193, 0., 0.0624133795,
          0.109244458 ]
      - [ 0.252204239, 0.116257675, 0.12779361, 0.167834178, 0.084861882,
          0., 0.0923141912, 0.0976240411, 0.0928500965, 0.0855347887, 0.,
          0.113758408, 0., 0.0600879863, 0.136203229, 0.142668858, 0.,
          0.0751268119, 0.0856410637, 0.186746016, 0.19521758,
          0.0367558002, 0.00388615648, 0., 0., 0., 0., 0., 0.300336123,
          0.177840769, 0.0604544058, 0.0995355174, 0.16298756,
          0.0930404142, 0., 0., 0.140668944, 0.139047027, 0.233688846,
          0.288275808, 0.00462144474, 0.00388615648, 0., 0., 0.108281642,
          0.0668847486, 0.0936400369, 0.0989828259, 0.184977084,
          0.0915083811, 0.126628369, 0.136975497, 0., 0., 0.,
          0.177737057, 0.241403461, 0.161590949, 0.115580164,
          0.255798876, 0.126018673, 0., 0.0917845815, 0.125257924 ]
      - [ 0.263727397, 0.232602507, 0.199240297, 0., 0., 0., 0., 0.,
          0.11390572, 0.240978241, 0.090784587, 0., 0., 0., 0.,
          0.0501941629, 0.15453212, 0.0191337597, 0., 0.0403741673,
          0.132577896, 0.0755398571, 0.187310949, 0.103684731,
          0.130924225, 0.0546650328, 0., 0.0534842797, 0.123810753,
          0.208272755, 0.212333396, 0.161199465, 0., 0.162154734,
          0.170125723, 0.184684202, 0.129018426, 0.169967577,
          0.147261366, 0.15979284, 0.0937748104, 0.219581887,
          0.103917941, 0.0734702349, 0.0624266118, 0., 0., 0.,
          0.14671801, 0.0426392518, 0.142499506, 0.111442894,
          0.0573382787, 0., 0., 0., 0.15703088, 0.276109576, 0.193293586,
          0.139172211, 0., 0.0928539038, 0.109198734, 0.101706564 ]
      - [ 0.117984511, 0.0944787338, 0.125608668, 0.186093867,
          0.144470945, 0.129946187, 0., 0., 0., 0., 0., 0.182269439, 0.,
          0.088885501, 0.184783235, 0.219849482, 0.0577255934,
          0.225814492, 0.170003831, 0.0704428405, 0., 0.088722229, 0.,
          0.0716732219, 0., 0.0886163786, 0.0984784886, 0.0922440067,
          0.096176073, 0.199243024, 0.196899295, 0.143561468,
          0.0823989734, 0.115240142, 0.0626895204, 0.0941319689,
          0.151862904, 0.264681458, 0.14618367, 0.19885011, 0.146018505,
          0.160337836, 0., 0., 0.0597245321, 0.138740063, 0.,
          0.121184357, 0., 0.138733879, 0.0875256285, 0., 0.,
          0.0261293072, 0.0225258302, 0.239984646, 0.211017802,
          0.195542783, 0.183215126, 0.104908004, 0.148391679,
          0.106287532, 0.0935096741, 0.0573585071 ]
      - [ 0.139672026, 0.241217479, 0.163194597, 0.190441117,
          0.177667484, 0.0789566636, 0.0895973444, 0., 0., 0.124193557,
          0.133877605, 0.105894193, 0., 0.0617717355, 0.134101838,
          0.0449540764, 0.116219677, 0.191716388, 0.201600298, 0., 0.,
          0., 0., 0., 0.0603513047, 0., 0.132620364, 0.208729044,
          0.20247373, 0.169279799, 0.0992510766, 0.0760014877, 0.,
          0.0671957657, 0.12900126, 0.149081603, 0.237043589,
          0.165982604, 0.158778265, 0.1336371, 0.194331884,
          0.00570973055, 0.0492709577, 0.108645096, 0.103476577,
          0.0795761645, 0.0624394603, 0.108908042, 0.0959807932,
          0.173019856, 0., 0., 0., 0., 0.020064719, 0., 0.167016521,
          0.337350368, 0.171212777, 0., 0.0963409469, 0.143205345, 0.,
          0.0940340832 ]
      - [ 0.0446636267, 0.123707511, 0.154668927, 0.277576208, 0., 0.,
          0., 0., 0., 0., 0., 0.103326499, 0.197361767, 0.157843739,
          0.11003536, 0.121104449, 0.085157305, 0.0683250502,
          0.0884451568, 0.0783625841, 0.217455536, 0.163800597,
          0.089365378, 0., 0., 0.0384943187, 0., 0., 0.275391847,
          0.206335977, 0.108724117, 0.0649080649, 0., 0.0467530303,
          0.0851916671, 0.185694471, 0.08537817, 0.122559063,
          0.239923984, 0.167135149, 0., 0.195111707, 0.0655905157, 0.,
          0.134579733, 0.090562515, 0., 0.105398946, 0.0136449002,
          0.0878858194, 0.0942413583, 0.150117323, 0.122795857,
          0.141302153, 0.130284652, 0.174928695, 0.123361997,
          0.147891015, 0.146337301, 0.193655744, 0.159936145,
          0.169447646, 0.135131329, 0.120263457 ]
      - [ 0.145739794, 0.0318783857, 0.179520905, 0.231721312, 0., 0.,
          0.0473462753, 0., 0., 0.00397775602, 0.148006186, 0.223976046,
          0.0656180531, 0.104771473, 0.0811417401, 0., 0.162951142,
          0.12873219, 0.146403804, 0.249402091, 0.0460772403, 0.,
          0.0272732079, 0., 0., 0., 0., 0.186488628, 0.179481015,
          0.196407557, 0.0681748539, 0.0260979868, 0.222513884,
          0.0603940412, 0.0177556183, 0.179730311, 0.127582267,
          0.0702063888, 0.122667983, 0.175361469, 0.234138682,
          0.0782941431, 0.0543192886, 0.113350093, 0., 0.0705042407,
          0.0993975699, 0.0562416576, 0.136012107, 0.0843114853,
          0.0785510316, 0.157518357, 0.216188669, 0.11142724, 0.10787268,
          0.0576323867, 0.18695958, 0.119786896, 0.19192633, 0.298532158,
          0.039916832, 0., 0., 0. ]
      - [ 0.247851133, 0.187660784, 0.0899226665, 0.104675092,
          0.112666279, 0.153201804, 0.141580135, 0.176605806,
          0.158101201, 0.0388774425, 0., 0., 0., 0., 0., 0.0183960814,
          0., 0., 0., 0., 0.107681125, 0.0442693718, 0.0123022012, 0.,
          0., 0.012276914, 0.177919373, 0.218616277, 0.109133944,
          0.11147593, 0.134014115, 0.232478216, 0.265315652, 0.140953958,
          0.156827569, 0.132096812, 0.127757505, 0.0930489153,
          0.115723364, 0.138701916, 0.260346681, 0.142493933, 0., 0., 0.,
          0., 0., 0.100687057, 0., 0., 0.0460431278, 0.108980387, 0.,
          0.110626347, 0.191206679, 0.186806619, 0.107781857,
          0.120778188, 0.214177594, 0.123085737, 0.143180639,
          0.148421079, 0.158776596, 0.199051067 ]
      - [ 0.00840699952, 0.16075553, 0.225791514, 0.311619252, 0., 0.,
          0., 0., 0., 0., 0., 0.234743744, 0.0766341388, 0.110073365,
          0.0829015151, 0.0401162356, 0.165193424, 0.156053826,
          0.150572568, 0.137505129, 0., 0., 0., 0., 0.0353198573, 0.,
          0.0993568301, 0.227490067, 0.159644261, 0.161815271,
          0.107223488, 0.134467259, 0., 0.0997971594, 0.15319249, 0.,
          0.225857228, 0.137118012, 0.129219458, 0.129915237,
          0.108081505, 0.235729396, 0., 0., 0.129314035, 0.0542765073,
          0.0958742797, 0., 0.151112065, 0.11735902, 0.0682592541, 0.,
          0., 0., 0.160345003, 0.166981414, 0.259446412, 0.237906054,
          0.110928968, 0., 0., 0.0924901143, 0.106041759, 0.152574599 ]
      - [ 0.320699781, 0.121691272, 0.123430736, 0.036442887,
          0.141900912, 0.0326704346, 0., 0., 0., 0., 0., 0., 0., 0.,
          0.018815117, 0.285878986, 0.370531648, 0.0349037349, 0., 0.,
          0., 0., 0., 0., 0., 0., 0., 0., 0.116414234, 0.158281401,
          0.246979505, 0.185069025, 0., 0., 0., 0., 0., 0.149343252,
          0.230920419, 0.380791366, 0., 0., 0., 0., 0., 0., 0., 0., 0.,
          0., 0., 0., 0., 0., 0., 0.0425845273, 0.4559111, 0.136075333,
          0.154157981, 0.125738084, 0.0417066365, 0., 0., 0. ]
      - [ 0.124587305, 0.11825785, 0.248960182, 0.192557141, 0.155793041,
          0.101907343, 0., 0., 0., 0., 0.174598515, 0.266928375,
          0.0997699648, 0.141745791, 0.12649639, 0., 0.331780195,
          0.153531581, 0., 0., 0., 0., 0., 0., 0.0078510195, 0.,
          0.0251914132, 0.127552733, 0.0279498398, 0.0937023535,
          0.0615130328, 0.138783619, 0.134611785, 0.205154806,
          0.126979128, 0.0814749599, 0.144743592, 0.151616275,
          0.103240475, 0.205950946, 0.196463898, 0.117767356, 0.,
          0.123597667, 0., 0.0847977996, 0.101883635, 0., 0.0794547573,
          0.173663974, 0., 0., 0., 0., 0., 0., 0.362878919, 0.266039968,
          0., 0.0392903797, 0., 0., 0., 0. ]
      - [ 0.175981984, 0.180388778, 0.1451222, 0.114986144, 0.20797804,
          0.029009372, 0., 0., 0., 0., 0., 0.1502112, 0.179855138,
          0.124283068, 0.137424856, 0., 0.213868737, 0.266460449, 0., 0.,
          0., 0.113150321, 0., 0.101466283, 0., 0.133186683, 0.,
          0.09469679, 0.165189922, 0.146925151, 0.135047361, 0.152797878,
          0.199884132, 0.0724737197, 0., 0., 0.142522827, 0.188452482,
          0.142608508, 0.150336415, 0.246256754, 0.17752561, 0., 0., 0.,
          0., 0.142746881, 0., 0., 0., 0.130321726, 0.155039862,
          0.132916749, 0.0926472098, 0.058607582, 0.115316175,
          0.159762859, 0.281121254, 0.141848221, 0.216052577, 0., 0., 0.,
          0. ]
      - [ 0.24300395, 0.123796135, 0.145301357, 0.196259201,
          0.0423905179, 0.0765980408, 0., 0.0853284895, 0.117211409,
          0.135788053, 0.140850618, 0., 0., 0., 0.0341149494,
          0.0196524896, 0.100528948, 0.0593409799, 0.109930016,
          0.212767258, 0.124880619, 0.0746461675, 0., 0., 0., 0., 0.,
          0.207172036, 0.226992205, 0.163484111, 0.152169079,
          0.130301028, 0., 0., 0.0230605174, 0.275428742, 0.174385697,
          0.0947968364, 0.0438951179, 0.117404118, 0.0106178494,
          0.0970047489, 0.0565958917, 0.296976119, 0., 0., 0., 0., 0.,
          0.0856979489, 0.117872767, 0.16721575, 0.16695109, 0.164132699,
          0.152487293, 0.124568217, 0.129583359, 0.1268491, 0.127641857,
          0.288805157, 0.0941383466, 0.116027571, 0.0335859098,
          0.113088168 ]
      - [ 0., 0.177344009, 0.26799193, 0.0414860509, 0.040291734,
          0.0884672701, 0.0748738945, 0., 0.107956618, 0.038582202,
          0.123749815, 0.0801423788, 0.0935965851, 0.1294505,
          0.0962811261, 0.113983393, 0.0920973644, 0.0813760683,
          0.0647185817, 0.113891594, 0.133877814, 0.171103731,
          0.170312047, 0., 0., 0., 0.0320564993, 0.142074004,
          0.153671965, 0.258026659, 0.139254034, 0.0991646424, 0.,
          0.0714460015, 0.130470768, 0.137469456, 0.204238832,
          0.23125416, 0.119102612, 0.127314761, 0., 0.113275282,
          0.166153565, 0.161897615, 0.123805411, 0.0682087541, 0., 0.,
          0.0767531097, 0.144548297, 0.17161949, 0.120949611, 0., 0.,
          0.140186831, 0.176173285, 0.111146577, 0.18440102, 0.162889123,
          0.179050863, 0.181406498, 0.0925758779, 0.136506975,
          0.0912794769 ]
      - [ 0.176533625, 0.116728254, 0.200511932, 0.229051486, 0., 0., 0.,
          0., 0.0775310323, 0.092218034, 0.11383535, 0.222508609, 0., 0.,
          0., 0., 0., 0., 0.0450183824, 0.186876759, 0.147630423,
          0.121097036, 0., 0.122076571, 0., 0., 0., 0.193427756,
          0.194554821, 0.143026322, 0.155733138, 0.190728337, 0.,
          0.142443612, 0.0113335429, 0.187892377, 0.224575296,
          0.127016068, 0.136901408, 0.143440053, 0.132564783,
          0.148382217, 0.0474356115, 0.128666162, 0.132661536,
          0.0900070295, 0.0757834688, 0.115742147, 0.185443059,
          0.133305147, 0.144661292, 0., 0.0410143137, 0., 0.0630623922,
          0.165374458, 0.25917241, 0.146617875, 0.165677071, 0.119443685,
          0.077205047, 0.0832241029, 0.101368614, 0.128107458 ]
      - [ 0.30065158, 0.141558453, 0.095014371, 0., 0., 0., 0., 0., 0.,
          0., 0., 0., 0., 0., 0.0705006048, 0.213684738, 0.308091253, 0.,
          0., 0., 0., 0., 0., 0., 0., 0., 0., 0., 0., 0.031627845,
          0.11789149, 0.315964609, 0.135611758, 0., 0.0780532584, 0.,
          0.154195383, 0., 0.239974335, 0.261317044, 0.316927433,
          0.0258488283, 0., 0., 0., 0., 0., 0.195703536, 0.,
          0.0350497663, 0., 0., 0., 0., 0.0249131508, 0.374453396,
          0.267295271, 0.165078223, 0.12519899, 0., 0.127174109,
          0.132029489, 0., 0.129118234 ]
      - [ 0.172990397, 0.0834044293, 0.130995721, 0.215829104,
          0.141695037, 0.0884686485, 0.0646333545, 0.0974355787, 0.,
          0.106271848, 0.0983561873, 0.119554482, 0.0470699295, 0.,
          0.0370100066, 0.20124948, 0.135578901, 0.0885599926,
          0.098886162, 0.144587457, 0.184679478, 0.0956330448,
          0.0143754715, 0., 0., 0.0239933226, 0.234568819, 0.123182483,
          0.207898006, 0.185379505, 0.117783509, 0.0990145281, 0., 0.,
          0.100087978, 0.230921805, 0.173591107, 0.142279789,
          0.133691341, 0.14122647, 0.113528356, 0.0303878784,
          0.139367521, 0.211083859, 0.0638961717, 0.11855495, 0.,
          0.0755661428, 0.187539339, 0.192753807, 0.139561579,
          0.0776912943, 0., 0., 0., 0.0234083273, 0.231412128,
          0.192004114, 0.216776654, 0.130673125, 0., 0., 0., 0. ]
      - [ 0.181733176, 0.102386691, 0.060237363, 0.124990217,
          0.234343916, 0.150842339, 0., 0.0218039826, 0., 0., 0., 0.,
          0.212362453, 0.177882805, 0.136723176, 0.193563133, 0.,
          0.185937315, 0.336832911, 0., 0., 0., 0., 0., 0., 0.,
          0.189393416, 0.206723019, 0.173233017, 0.154198587,
          0.107021235, 0.123803169, 0.128298134, 0., 0.0478890166, 0.,
          0., 0.248475119, 0.348668188, 0., 0., 0., 0., 0., 0., 0., 0.,
          0.120217144, 0., 0.0857493207, 0.026190998, 0., 0., 0.,
          0.147966996, 0.0840035602, 0.0760900825, 0.105417058,
          0.361887395, 0.132747054, 0., 0., 0., 0. ]
      - [ 0.0977307484, 0.263828039, 0.232143819, 0.0856834874, 0., 0.,
          0., 0., 0.0136148855, 0., 0.194661036, 0.0774243996, 0.,
          0.094553344, 0.0805403516, 0.105727799, 0.154788882,
          0.149379894, 0.0614611283, 0.167027012, 0.144687101,
          0.0994670764, 0., 0.0916444883, 0.0506486334, 0.12807107,
          0.169787347, 0.178000167, 0.16741927, 0.143831655, 0.140970901,
          0.115190297, 0.0733148456, 0.132066235, 0.0645906702,
          0.0744008422, 0.102002174, 0.163591266, 0.152184278,
          0.14017427, 0.150979578, 0.171561211, 0.232715905, 0., 0.,
          0.087512441, 0., 0.0939413533, 0., 0., 0., 0.161449432,
          0.280448794, 0.125515565, 0.141351372, 0., 0.0415686928,
          0.0802583992, 0.142693624, 0.16280809, 0.269883662,
          0.0820048749, 0., 0. ]
      - [ 0.204523101, 0.114840508, 0.218438312, 0.194794998,
          0.0559033006, 0., 0., 0., 0.217482567, 0.103041306,
          0.0887850299, 0.1374221, 0.0746088699, 0.0505945906,
          0.105594322, 0.075569123, 0.306536436, 0.111984186, 0., 0., 0.,
          0., 0., 0., 0., 0.112568825, 0.0585935265, 0., 0.115085222,
          0.108660579, 0.108838953, 0.138918027, 0.198707029,
          0.041420009, 0.0638225973, 0., 0.306007713, 0.133131906,
          0.108913198, 0.0643808991, 0.107827425, 0.231082857,
          0.11023844, 0., 0.110862978, 0.118009292, 0.103695296,
          0.0962585062, 0.242598429, 0.0997864008, 0., 0., 0., 0., 0.,
          0., 0.42821762, 0.100587226, 0.0967520028, 0., 0., 0., 0., 0. ]
      - [ 0.0859500393, 0.188838646, 0.298903286, 0.119412266, 0., 0.,
          0., 0., 0., 0., 0.206378937, 0.104091555, 0.043443758,
          0.134994, 0.0679497123, 0.126775116, 0.0912041515,
          0.0894770324, 0.0606635138, 0.167772889, 0.111465938,
          0.145119101, 0.117599949, 0., 0., 0., 0., 0.113284744,
          0.189188525, 0.195556119, 0.22715053, 0.0918379426,
          0.127859563, 0.104603149, 0.0864655301, 0., 0.146415338,
          0.0733541772, 0.256401479, 0.196999878, 0.188994721,
          0.0917163938, 0., 0., 0.0941012949, 0., 0.0936568528,
          0.0812739655, 0.106500924, 0.121471219, 0.135844395, 0., 0.,
          0.0609909557, 0.194136068, 0.156035304, 0.142279476,
          0.214060962, 0.18201831, 0.148955137, 0., 0.150243774,
          0.0960790887, 0.136980459 ]
      - [ 0.0571164377, 0.109316073, 0.23751159, 0.175507888, 0., 0., 0.,
          0., 0., 0.0274449661, 0.128365606, 0.237089172, 0.092866376,
          0.0806803927, 0.0507195741, 0.081795074, 0.143223688,
          0.110160075, 0.155930787, 0.292536736, 0., 0., 0., 0., 0.,
          0.0189799517, 0.140445352, 0.266673326, 0.153584272,
          0.0487684496, 0.0954037085, 0.070353128, 0.118522145,
          0.120728746, 0.0672385171, 0.110350728, 0.153623775,
          0.204393625, 0.174595743, 0.10271617, 0.148100078, 0.133261532,
          0., 0.0401180014, 0.144023806, 0.153458238, 0.100393936, 0.,
          0., 0., 0.141871557, 0.100046329, 0.142144233, 0.172363669,
          0.126448661, 0.156169444, 0.113241822, 0.12002036,
